FANN_FLO_2.1
num_layers=3
learning_rate=0.700000
connection_rate=1.000000
network_type=0
learning_momentum=0.400000
training_algorithm=0
train_error_function=1
train_stop_function=0
cascade_output_change_fraction=0.010000
quickprop_decay=-0.000100
quickprop_mu=1.750000
rprop_increase_factor=1.200000
rprop_decrease_factor=0.500000
rprop_delta_min=0.000000
rprop_delta_max=50.000000
rprop_delta_zero=0.100000
cascade_output_stagnation_epochs=12
cascade_candidate_change_fraction=0.010000
cascade_candidate_stagnation_epochs=12
cascade_max_out_epochs=150
cascade_min_out_epochs=50
cascade_max_cand_epochs=150
cascade_min_cand_epochs=50
cascade_num_candidate_groups=2
bit_fail_limit=3.49999994039535522461e-01
cascade_candidate_limit=1.00000000000000000000e+03
cascade_weight_multiplier=4.00000005960464477539e-01
cascade_activation_functions_count=10
cascade_activation_functions=3 5 7 8 10 11 14 15 16 17 
cascade_activation_steepnesses_count=4
cascade_activation_steepnesses=2.50000000000000000000e-01 5.00000000000000000000e-01 7.50000000000000000000e-01 1.00000000000000000000e+00 
layer_sizes=49 97 4 
scale_included=0
neurons (num_inputs, activation_function, activation_steepness)=(0, 0, 0.00000000000000000000e+00) (0, 0, 0.00000000000000000000e+00) (0, 0, 0.00000000000000000000e+00) (0, 0, 0.00000000000000000000e+00) (0, 0, 0.00000000000000000000e+00) (0, 0, 0.00000000000000000000e+00) (0, 0, 0.00000000000000000000e+00) (0, 0, 0.00000000000000000000e+00) (0, 0, 0.00000000000000000000e+00) (0, 0, 0.00000000000000000000e+00) (0, 0, 0.00000000000000000000e+00) (0, 0, 0.00000000000000000000e+00) (0, 0, 0.00000000000000000000e+00) (0, 0, 0.00000000000000000000e+00) (0, 0, 0.00000000000000000000e+00) (0, 0, 0.00000000000000000000e+00) (0, 0, 0.00000000000000000000e+00) (0, 0, 0.00000000000000000000e+00) (0, 0, 0.00000000000000000000e+00) (0, 0, 0.00000000000000000000e+00) (0, 0, 0.00000000000000000000e+00) (0, 0, 0.00000000000000000000e+00) (0, 0, 0.00000000000000000000e+00) (0, 0, 0.00000000000000000000e+00) (0, 0, 0.00000000000000000000e+00) (0, 0, 0.00000000000000000000e+00) (0, 0, 0.00000000000000000000e+00) (0, 0, 0.00000000000000000000e+00) (0, 0, 0.00000000000000000000e+00) (0, 0, 0.00000000000000000000e+00) (0, 0, 0.00000000000000000000e+00) (0, 0, 0.00000000000000000000e+00) (0, 0, 0.00000000000000000000e+00) (0, 0, 0.00000000000000000000e+00) (0, 0, 0.00000000000000000000e+00) (0, 0, 0.00000000000000000000e+00) (0, 0, 0.00000000000000000000e+00) (0, 0, 0.00000000000000000000e+00) (0, 0, 0.00000000000000000000e+00) (0, 0, 0.00000000000000000000e+00) (0, 0, 0.00000000000000000000e+00) (0, 0, 0.00000000000000000000e+00) (0, 0, 0.00000000000000000000e+00) (0, 0, 0.00000000000000000000e+00) (0, 0, 0.00000000000000000000e+00) (0, 0, 0.00000000000000000000e+00) (0, 0, 0.00000000000000000000e+00) (0, 0, 0.00000000000000000000e+00) (0, 0, 0.00000000000000000000e+00) (49, 4, 5.00000000000000000000e-01) (49, 4, 5.00000000000000000000e-01) (49, 4, 5.00000000000000000000e-01) (49, 4, 5.00000000000000000000e-01) (49, 4, 5.00000000000000000000e-01) (49, 4, 5.00000000000000000000e-01) (49, 4, 5.00000000000000000000e-01) (49, 4, 5.00000000000000000000e-01) (49, 4, 5.00000000000000000000e-01) (49, 4, 5.00000000000000000000e-01) (49, 4, 5.00000000000000000000e-01) (49, 4, 5.00000000000000000000e-01) (49, 4, 5.00000000000000000000e-01) (49, 4, 5.00000000000000000000e-01) (49, 4, 5.00000000000000000000e-01) (49, 4, 5.00000000000000000000e-01) (49, 4, 5.00000000000000000000e-01) (49, 4, 5.00000000000000000000e-01) (49, 4, 5.00000000000000000000e-01) (49, 4, 5.00000000000000000000e-01) (49, 4, 5.00000000000000000000e-01) (49, 4, 5.00000000000000000000e-01) (49, 4, 5.00000000000000000000e-01) (49, 4, 5.00000000000000000000e-01) (49, 4, 5.00000000000000000000e-01) (49, 4, 5.00000000000000000000e-01) (49, 4, 5.00000000000000000000e-01) (49, 4, 5.00000000000000000000e-01) (49, 4, 5.00000000000000000000e-01) (49, 4, 5.00000000000000000000e-01) (49, 4, 5.00000000000000000000e-01) (49, 4, 5.00000000000000000000e-01) (49, 4, 5.00000000000000000000e-01) (49, 4, 5.00000000000000000000e-01) (49, 4, 5.00000000000000000000e-01) (49, 4, 5.00000000000000000000e-01) (49, 4, 5.00000000000000000000e-01) (49, 4, 5.00000000000000000000e-01) (49, 4, 5.00000000000000000000e-01) (49, 4, 5.00000000000000000000e-01) (49, 4, 5.00000000000000000000e-01) (49, 4, 5.00000000000000000000e-01) (49, 4, 5.00000000000000000000e-01) (49, 4, 5.00000000000000000000e-01) (49, 4, 5.00000000000000000000e-01) (49, 4, 5.00000000000000000000e-01) (49, 4, 5.00000000000000000000e-01) (49, 4, 5.00000000000000000000e-01) (49, 4, 5.00000000000000000000e-01) (49, 4, 5.00000000000000000000e-01) (49, 4, 5.00000000000000000000e-01) (49, 4, 5.00000000000000000000e-01) (49, 4, 5.00000000000000000000e-01) (49, 4, 5.00000000000000000000e-01) (49, 4, 5.00000000000000000000e-01) (49, 4, 5.00000000000000000000e-01) (49, 4, 5.00000000000000000000e-01) (49, 4, 5.00000000000000000000e-01) (49, 4, 5.00000000000000000000e-01) (49, 4, 5.00000000000000000000e-01) (49, 4, 5.00000000000000000000e-01) (49, 4, 5.00000000000000000000e-01) (49, 4, 5.00000000000000000000e-01) (49, 4, 5.00000000000000000000e-01) (49, 4, 5.00000000000000000000e-01) (49, 4, 5.00000000000000000000e-01) (49, 4, 5.00000000000000000000e-01) (49, 4, 5.00000000000000000000e-01) (49, 4, 5.00000000000000000000e-01) (49, 4, 5.00000000000000000000e-01) (49, 4, 5.00000000000000000000e-01) (49, 4, 5.00000000000000000000e-01) (49, 4, 5.00000000000000000000e-01) (49, 4, 5.00000000000000000000e-01) (49, 4, 5.00000000000000000000e-01) (49, 4, 5.00000000000000000000e-01) (49, 4, 5.00000000000000000000e-01) (49, 4, 5.00000000000000000000e-01) (49, 4, 5.00000000000000000000e-01) (49, 4, 5.00000000000000000000e-01) (49, 4, 5.00000000000000000000e-01) (49, 4, 5.00000000000000000000e-01) (49, 4, 5.00000000000000000000e-01) (49, 4, 5.00000000000000000000e-01) (49, 4, 5.00000000000000000000e-01) (49, 4, 5.00000000000000000000e-01) (49, 4, 5.00000000000000000000e-01) (49, 4, 5.00000000000000000000e-01) (49, 4, 5.00000000000000000000e-01) (49, 4, 5.00000000000000000000e-01) (49, 4, 5.00000000000000000000e-01) (49, 4, 5.00000000000000000000e-01) (49, 4, 5.00000000000000000000e-01) (49, 4, 5.00000000000000000000e-01) (49, 4, 5.00000000000000000000e-01) (49, 4, 5.00000000000000000000e-01) (0, 0, 0.00000000000000000000e+00) (97, 4, 5.00000000000000000000e-01) (97, 4, 5.00000000000000000000e-01) (97, 4, 5.00000000000000000000e-01) (0, 0, 0.00000000000000000000e+00) 
connections (connected_to_neuron, weight)=(0, -1.72321766614913940430e-01) (1, -2.10331439971923828125e-01) (2, -1.24703377485275268555e-01) (3, -2.34676912426948547363e-01) (4, 9.89881716668605804443e-03) (5, -6.54269233345985412598e-02) (6, -1.19188159704208374023e-01) (7, 2.64641176909208297729e-02) (8, -2.77501702308654785156e-01) (9, 7.69016221165657043457e-02) (10, 9.32999029755592346191e-02) (11, 7.97444880008697509766e-02) (12, -2.45630219578742980957e-01) (13, -2.50244736671447753906e-01) (14, -2.54344761371612548828e-01) (15, 3.68708670139312744141e-02) (16, -4.66719642281532287598e-02) (17, 1.73285245895385742188e-01) (18, -7.25046172738075256348e-02) (19, 5.39269484579563140869e-02) (20, 1.75524294376373291016e-01) (21, 9.80844423174858093262e-02) (22, 1.96995109319686889648e-01) (23, 7.60735422372817993164e-02) (24, -1.08814937993884086609e-03) (25, 2.30245068669319152832e-02) (26, -7.53199085593223571777e-02) (27, -5.84507770836353302002e-02) (28, -1.80475816130638122559e-01) (29, 3.87123338878154754639e-02) (30, 4.05547283589839935303e-02) (31, 3.25407713651657104492e-01) (32, -8.28987807035446166992e-02) (33, 1.85771793127059936523e-01) (34, 1.32449895143508911133e-01) (35, 1.44149214029312133789e-01) (36, -1.29663115367293357849e-02) (37, -3.41410487890243530273e-02) (38, 2.48705893754959106445e-02) (39, -7.43486732244491577148e-02) (40, 9.48963873088359832764e-03) (41, 6.63693845272064208984e-02) (42, -3.74532863497734069824e-02) (43, 6.46429657936096191406e-02) (44, 4.91186268627643585205e-02) (45, -1.48188918828964233398e-01) (46, -1.29392445087432861328e-01) (47, -3.55809748172760009766e-01) (48, -1.59355568885803222656e+00) (0, -1.60245280712842941284e-02) (1, -1.13174192607402801514e-01) (2, -9.67188626527786254883e-02) (3, -1.05515010654926300049e-01) (4, -2.91483998298645019531e-01) (5, -1.63144990801811218262e-01) (6, -9.06996801495552062988e-02) (7, -2.44911424815654754639e-02) (8, -2.88542173802852630615e-02) (9, -3.20954591035842895508e-01) (10, -2.34360858798027038574e-01) (11, -2.50940442085266113281e-01) (12, -1.62979155778884887695e-01) (13, 3.44083420932292938232e-02) (14, 1.73067837953567504883e-01) (15, -1.44498586654663085938e-01) (16, -3.12176465988159179688e-01) (17, -3.50671201944351196289e-01) (18, -2.56434589624404907227e-01) (19, -2.70189642906188964844e-01) (20, -3.23712378740310668945e-01) (21, -1.98451682925224304199e-01) (22, -2.27550640702247619629e-01) (23, -5.47357834875583648682e-02) (24, -2.69130885601043701172e-01) (25, -3.22139292955398559570e-01) (26, -3.10227990150451660156e-01) (27, -2.50902265310287475586e-01) (28, -3.16316723823547363281e-01) (29, -3.87018561363220214844e-01) (30, -1.15932360291481018066e-01) (31, 1.46831646561622619629e-02) (32, -5.08129075169563293457e-02) (33, -3.94768983125686645508e-01) (34, -3.75159561634063720703e-01) (35, -4.25659924745559692383e-01) (36, -2.95537739992141723633e-01) (37, -2.36077651381492614746e-01) (38, -2.36388370394706726074e-01) (39, -3.74085493385791778564e-02) (40, 3.33481952548027038574e-02) (41, -2.07091838121414184570e-01) (42, -1.44606485962867736816e-01) (43, -5.75479686260223388672e-01) (44, -3.65935802459716796875e-01) (45, -2.93244004249572753906e-01) (46, -3.69417630136013031006e-02) (47, -2.26977933198213577271e-03) (48, -1.39747893810272216797e+00) (0, -4.51238751411437988281e-02) (1, -6.57764077186584472656e-02) (2, 6.39331415295600891113e-02) (3, -5.02077452838420867920e-02) (4, -1.75528600811958312988e-01) (5, -1.34486436843872070312e-01) (6, -1.23579621315002441406e-01) (7, -2.45360523462295532227e-01) (8, -8.16191826015710830688e-03) (9, 4.85446415841579437256e-02) (10, 6.32206797599792480469e-02) (11, -6.48619607090950012207e-02) (12, -2.23083123564720153809e-01) (13, -2.25771665573120117188e-01) (14, -1.06682173907756805420e-01) (15, -3.99194449186325073242e-01) (16, 3.92771244049072265625e-01) (17, 1.60733953118324279785e-01) (18, -5.07853366434574127197e-02) (19, -1.33019700646400451660e-01) (20, -3.61259102821350097656e-01) (21, -2.06755846738815307617e-02) (22, 1.07263177633285522461e-01) (23, 1.39806956052780151367e-01) (24, 3.44255715608596801758e-01) (25, 2.13972628116607666016e-01) (26, 2.07672074437141418457e-01) (27, 1.49158567190170288086e-01) (28, 1.33911997079849243164e-01) (29, -1.57785773277282714844e-01) (30, 2.24459990859031677246e-01) (31, 2.08529517054557800293e-01) (32, -3.29833626747131347656e-01) (33, 1.19598269462585449219e-01) (34, 2.33051642775535583496e-01) (35, 4.36684899032115936279e-02) (36, -3.28195720911026000977e-01) (37, 2.94925086200237274170e-02) (38, 9.26017463207244873047e-02) (39, -6.10991716384887695312e-02) (40, -3.26177865266799926758e-01) (41, -1.11604765057563781738e-01) (42, 5.07701374590396881104e-02) (43, 9.33709442615509033203e-02) (44, 9.65941846370697021484e-02) (45, 1.61402374505996704102e-01) (46, -6.57341107726097106934e-02) (47, -1.23720183968544006348e-01) (48, -1.74608218669891357422e+00) (0, -6.13806918263435363770e-02) (1, 5.42637472972273826599e-03) (2, -1.24944224953651428223e-01) (3, -1.06141611933708190918e-01) (4, -5.12179017066955566406e-01) (5, -3.12862187623977661133e-01) (6, -2.21325412392616271973e-01) (7, -8.17723050713539123535e-02) (8, 9.88913923501968383789e-02) (9, -2.13538721203804016113e-01) (10, -2.29767188429832458496e-01) (11, -1.61005795001983642578e-01) (12, -3.26835870742797851562e-01) (13, -1.03066572919487953186e-02) (14, -2.62330621480941772461e-02) (15, 2.23149597644805908203e-01) (16, -2.83056616783142089844e-01) (17, -2.50818848609924316406e-01) (18, -1.63268133997917175293e-01) (19, -2.96127885580062866211e-01) (20, -4.75178837776184082031e-01) (21, -4.26907390356063842773e-01) (22, -4.48576450347900390625e-01) (23, -6.56088769435882568359e-01) (24, -1.91953867673873901367e-01) (25, -3.31479847431182861328e-01) (26, -4.94559884071350097656e-01) (27, -3.50159376859664916992e-01) (28, -4.34170842170715332031e-01) (29, -5.09650766849517822266e-01) (30, -6.93022429943084716797e-01) (31, -6.00045979022979736328e-01) (32, 8.03581103682518005371e-02) (33, -3.73032629489898681641e-01) (34, -5.15313863754272460938e-01) (35, -8.02461802959442138672e-01) (36, -4.89990949630737304688e-01) (37, -5.13200402259826660156e-01) (38, -3.87837439775466918945e-01) (39, 6.94838911294937133789e-02) (40, 6.77921175956726074219e-02) (41, -1.69535979628562927246e-01) (42, -2.42111980915069580078e-02) (43, -1.00658023357391357422e+00) (44, -5.81250488758087158203e-01) (45, -3.86575311422348022461e-01) (46, -3.78886871039867401123e-02) (47, 9.63891819119453430176e-02) (48, -8.02584588527679443359e-01) (0, 5.19514009356498718262e-02) (1, -1.12728197127580642700e-02) (2, -1.29340812563896179199e-01) (3, -1.62706971168518066406e-01) (4, -2.39548608660697937012e-01) (5, -7.95522555708885192871e-02) (6, -1.28149434924125671387e-01) (7, -3.18181812763214111328e-02) (8, 1.59117728471755981445e-02) (9, -1.50406882166862487793e-01) (10, -7.05858990550041198730e-02) (11, -2.10732728242874145508e-01) (12, -9.06421914696693420410e-02) (13, -8.76386016607284545898e-02) (14, -1.04357581585645675659e-02) (15, -2.15952038764953613281e-01) (16, -1.31591096520423889160e-01) (17, -1.31162554025650024414e-01) (18, -1.31721034646034240723e-01) (19, -1.06721870601177215576e-01) (20, -2.23905831575393676758e-01) (21, -1.57243043184280395508e-01) (22, -2.06346571445465087891e-01) (23, -4.43771593272686004639e-02) (24, -8.93003866076469421387e-02) (25, -7.30743780732154846191e-02) (26, -7.20242559909820556641e-02) (27, -2.41932526230812072754e-01) (28, -1.58378720283508300781e-01) (29, -5.78643791377544403076e-02) (30, 8.68340358138084411621e-02) (31, 9.49886515736579895020e-02) (32, -1.03459835052490234375e-01) (33, -1.67395651340484619141e-01) (34, -1.77869405597448348999e-02) (35, -1.29655912518501281738e-01) (36, -1.37854501605033874512e-01) (37, -2.97654978930950164795e-02) (38, -1.24216094613075256348e-01) (39, -2.03797556459903717041e-02) (40, -9.84204635024070739746e-02) (41, -7.52274766564369201660e-02) (42, -6.42008753493428230286e-03) (43, -2.68961817026138305664e-01) (44, -2.42783248424530029297e-01) (45, -6.41188770532608032227e-02) (46, -1.64308577775955200195e-01) (47, -7.53848105669021606445e-02) (48, -1.55381894111633300781e+00) (0, -1.24972909688949584961e-01) (1, -6.84523433446884155273e-02) (2, -2.76465378701686859131e-02) (3, -6.38442039489746093750e-02) (4, -5.76830320060253143311e-02) (5, -1.11850284039974212646e-01) (6, -2.13308006525039672852e-01) (7, -1.24922603368759155273e-01) (8, -1.41023129224777221680e-01) (9, 4.06613759696483612061e-02) (10, 1.55752196907997131348e-01) (11, -6.81414976716041564941e-02) (12, -1.32427111268043518066e-01) (13, -3.02542895078659057617e-01) (14, -9.95108410716056823730e-02) (15, -1.15437030792236328125e-01) (16, 2.68415994942188262939e-02) (17, 1.64193600416183471680e-01) (18, -2.10833400487899780273e-02) (19, -2.96381060034036636353e-02) (20, 2.19676177948713302612e-02) (21, -7.30345472693443298340e-02) (22, 8.51000547409057617188e-02) (23, 4.18633297085762023926e-02) (24, 1.10856883227825164795e-01) (25, -3.42027917504310607910e-02) (26, 9.29718762636184692383e-02) (27, -6.65656030178070068359e-02) (28, -1.55495434999465942383e-01) (29, 3.92780303955078125000e-02) (30, 2.67851892858743667603e-02) (31, 2.96203084290027618408e-02) (32, -1.07773080468177795410e-01) (33, 1.57853841781616210938e-01) (34, 9.33825969696044921875e-02) (35, -3.79085093736648559570e-02) (36, -1.34117290377616882324e-01) (37, -9.83367674052715301514e-04) (38, 6.84496313333511352539e-02) (39, -1.69074386358261108398e-01) (40, -1.06996141374111175537e-01) (41, 2.23852284252643585205e-02) (42, -1.14656858146190643311e-01) (43, 6.01987577974796295166e-02) (44, 8.16640928387641906738e-02) (45, 3.73316481709480285645e-02) (46, -1.14400938153266906738e-01) (47, -5.46517781913280487061e-02) (48, -1.63883399963378906250e+00) (0, -1.91538169980049133301e-01) (1, -7.50262886285781860352e-02) (2, -9.13045406341552734375e-02) (3, -2.15930148959159851074e-01) (4, -3.20663571357727050781e-01) (5, -5.77581580728292465210e-03) (6, -1.97656273841857910156e-01) (7, -5.71845173835754394531e-02) (8, -9.94801614433526992798e-03) (9, -1.94495439529418945312e-01) (10, -6.46204352378845214844e-02) (11, -4.09748889505863189697e-02) (12, -4.25775945186614990234e-01) (13, -2.36995056271553039551e-01) (14, -2.67819613218307495117e-01) (15, -4.23444919288158416748e-02) (16, 1.96969322860240936279e-02) (17, 5.18440827727317810059e-02) (18, -1.88035130500793457031e-01) (19, -2.52953171730041503906e-01) (20, -3.72610747814178466797e-01) (21, -3.61948668956756591797e-01) (22, -1.52519553899765014648e-01) (23, -4.27515983581542968750e-01) (24, 1.95644900202751159668e-01) (25, -1.62275224924087524414e-01) (26, -1.51689469814300537109e-01) (27, -3.27898889780044555664e-01) (28, -3.65131437778472900391e-01) (29, -2.71510630846023559570e-01) (30, -4.71315056085586547852e-01) (31, -4.30438995361328125000e-01) (32, 8.16037803888320922852e-02) (33, -9.18078944087028503418e-02) (34, -2.21849843859672546387e-01) (35, -2.42613762617111206055e-01) (36, -4.28218215703964233398e-01) (37, -2.95635402202606201172e-01) (38, -2.64296621084213256836e-01) (39, -9.83871370553970336914e-02) (40, -2.25766766816377639771e-02) (41, -1.64877071976661682129e-01) (42, -4.61255237460136413574e-02) (43, -4.34477806091308593750e-01) (44, -5.93435883522033691406e-01) (45, -1.29938289523124694824e-01) (46, -5.78134842216968536377e-02) (47, -1.58983096480369567871e-01) (48, -1.48765325546264648438e+00) (0, -8.45880806446075439453e-02) (1, -9.21531617641448974609e-02) (2, -2.00908467173576354980e-01) (3, -1.04899704456329345703e-02) (4, -5.44041752815246582031e-01) (5, -2.81500190496444702148e-01) (6, -2.71577060222625732422e-01) (7, -1.08179479837417602539e-01) (8, 1.41916900873184204102e-01) (9, -1.95736795663833618164e-01) (10, -2.35376253724098205566e-01) (11, -3.71752530336380004883e-01) (12, -3.67993831634521484375e-01) (13, -2.09144026041030883789e-01) (14, -8.43286365270614624023e-02) (15, 6.98619633913040161133e-02) (16, -1.87662512063980102539e-01) (17, -2.96511113643646240234e-01) (18, -3.43710631132125854492e-01) (19, -4.41732645034790039062e-01) (20, -6.02574467658996582031e-01) (21, -5.99164962768554687500e-01) (22, -4.46069538593292236328e-01) (23, -7.39662230014801025391e-01) (24, -3.49612981081008911133e-02) (25, -3.34486097097396850586e-01) (26, -3.78695040941238403320e-01) (27, -4.82216715812683105469e-01) (28, -4.72967237234115600586e-01) (29, -4.53301787376403808594e-01) (30, -6.86702847480773925781e-01) (31, -7.88068056106567382812e-01) (32, 1.46421149373054504395e-01) (33, -4.47059929370880126953e-01) (34, -4.67324942350387573242e-01) (35, -7.27360188961029052734e-01) (36, -7.20545828342437744141e-01) (37, -4.44557189941406250000e-01) (38, -4.49794322252273559570e-01) (39, 3.91238108277320861816e-02) (40, -3.51649187505245208740e-02) (41, -2.45276078581809997559e-01) (42, -1.09386853873729705811e-01) (43, -9.76834297180175781250e-01) (44, -7.36643791198730468750e-01) (45, -4.24711436033248901367e-01) (46, -7.36700072884559631348e-02) (47, 4.72025498747825622559e-02) (48, -7.02167868614196777344e-01) (0, -1.94926515221595764160e-01) (1, -1.50260746479034423828e-01) (2, -1.04622885584831237793e-01) (3, -1.60364776849746704102e-01) (4, -1.51236817240715026855e-01) (5, -1.17822997272014617920e-01) (6, -5.28966961428523063660e-03) (7, 3.22036482393741607666e-02) (8, -1.20455026626586914062e-01) (9, -1.97032630443572998047e-01) (10, 1.00800953805446624756e-03) (11, -1.48618638515472412109e-01) (12, -3.07598263025283813477e-01) (13, -1.78064614534378051758e-01) (14, -8.34038779139518737793e-02) (15, 7.31542035937309265137e-02) (16, -2.05964595079421997070e-01) (17, -2.02883630990982055664e-01) (18, -4.93345223367214202881e-02) (19, -2.29022294282913208008e-01) (20, -1.10118612647056579590e-01) (21, -1.82818397879600524902e-01) (22, -1.46630465984344482422e-01) (23, -8.14491659402847290039e-02) (24, -1.96278527379035949707e-01) (25, -1.32776170969009399414e-01) (26, -2.34512269496917724609e-01) (27, -2.27064117789268493652e-01) (28, -2.93890088796615600586e-01) (29, -1.49634554982185363770e-01) (30, -2.05963000655174255371e-01) (31, -3.94411431625485420227e-03) (32, 2.17003300786018371582e-02) (33, -6.43259808421134948730e-02) (34, -1.83033287525177001953e-01) (35, -2.47156694531440734863e-01) (36, -1.29076525568962097168e-01) (37, -1.47510826587677001953e-01) (38, 3.34971398115158081055e-02) (39, -1.67054101824760437012e-01) (40, 2.04664677381515502930e-01) (41, -9.94314998388290405273e-02) (42, -8.80577266216278076172e-02) (43, -3.50659400224685668945e-01) (44, -3.40070068836212158203e-01) (45, -1.39974579215049743652e-01) (46, -1.81535258889198303223e-01) (47, -1.31730154156684875488e-01) (48, -1.50438261032104492188e+00) (0, 2.95300800353288650513e-02) (1, -4.09074872732162475586e-02) (2, -1.63839384913444519043e-01) (3, -3.11132594943046569824e-02) (4, -2.79452979564666748047e-01) (5, -1.46150872111320495605e-01) (6, -2.31187745928764343262e-01) (7, -1.89254686236381530762e-01) (8, 1.90519969910383224487e-02) (9, -3.80275487899780273438e-01) (10, -3.73637855052947998047e-01) (11, -3.25123399496078491211e-01) (12, -1.00452788174152374268e-02) (13, -3.67213860154151916504e-02) (14, 1.78067311644554138184e-01) (15, -1.72225877642631530762e-01) (16, -3.20072472095489501953e-01) (17, -4.95472669601440429688e-01) (18, -2.63343602418899536133e-01) (19, -4.61933046579360961914e-01) (20, -3.94163459539413452148e-01) (21, -2.15228617191314697266e-01) (22, -2.06605851650238037109e-01) (23, -8.64514485001564025879e-02) (24, -1.98293179273605346680e-01) (25, -3.47105830907821655273e-01) (26, -2.72315859794616699219e-01) (27, -5.37290394306182861328e-01) (28, -3.98575991392135620117e-01) (29, -4.77629572153091430664e-01) (30, -2.08318769931793212891e-01) (31, -2.74931699037551879883e-01) (32, -2.08241924643516540527e-01) (33, -5.12772858142852783203e-01) (34, -4.60128605365753173828e-01) (35, -5.96666991710662841797e-01) (36, -4.70039039850234985352e-01) (37, -3.52756768465042114258e-01) (38, -4.49341922998428344727e-01) (39, -1.94061964750289916992e-01) (40, -2.52868663519620895386e-02) (41, -3.36292445659637451172e-01) (42, -6.60719722509384155273e-02) (43, -7.04916775226593017578e-01) (44, -5.32717227935791015625e-01) (45, -2.97553896903991699219e-01) (46, -1.13176599144935607910e-01) (47, 2.74405833333730697632e-02) (48, -1.14307570457458496094e+00) (0, 1.74102578312158584595e-02) (1, -1.48879915475845336914e-01) (2, -5.58416619896888732910e-02) (3, -1.20450302958488464355e-01) (4, -1.58018350601196289062e-01) (5, -1.84603463858366012573e-02) (6, -1.01887434720993041992e-01) (7, -6.05614595115184783936e-02) (8, 1.59680545330047607422e-02) (9, -1.16431526839733123779e-01) (10, -1.04448303580284118652e-01) (11, -1.47330760955810546875e-01) (12, -2.53126114606857299805e-01) (13, -2.52265721559524536133e-01) (14, -6.66932016611099243164e-02) (15, -6.94227293133735656738e-02) (16, -9.10313725471496582031e-02) (17, -9.96965244412422180176e-02) (18, -5.10089173913002014160e-02) (19, -1.73990055918693542480e-01) (20, -2.23463088274002075195e-01) (21, -1.01905569434165954590e-01) (22, -2.14598506689071655273e-01) (23, -4.69400584697723388672e-02) (24, 3.09284739196300506592e-02) (25, -1.17585837841033935547e-01) (26, -2.65875179320573806763e-02) (27, -1.43993347883224487305e-01) (28, -1.32842868566513061523e-01) (29, -8.45936313271522521973e-02) (30, -2.55584046244621276855e-02) (31, -1.70005559921264648438e-01) (32, -1.65820959955453872681e-02) (33, -5.48728443682193756104e-02) (34, -6.48624375462532043457e-02) (35, -1.64291471242904663086e-01) (36, -2.39694729447364807129e-01) (37, -8.36875811219215393066e-02) (38, -5.57329971343278884888e-03) (39, 6.15570461377501487732e-03) (40, -2.57042702287435531616e-02) (41, -2.30877511203289031982e-02) (42, -1.85196384787559509277e-01) (43, -2.44469329714775085449e-01) (44, -1.79599910974502563477e-01) (45, -1.35902717709541320801e-01) (46, -1.27342596650123596191e-01) (47, -3.45788151025772094727e-02) (48, -1.53424739837646484375e+00) (0, 2.73080289363861083984e-01) (1, 3.81929725408554077148e-01) (2, 5.43955266475677490234e-01) (3, 5.54838776588439941406e-01) (4, -3.90214562416076660156e-01) (5, -2.04149663448333740234e-01) (6, -4.94465827941894531250e-01) (7, 1.11162304878234863281e-01) (8, 3.25658172369003295898e-01) (9, 1.43236130475997924805e-01) (10, 2.77287334203720092773e-01) (11, 8.86674299836158752441e-02) (12, 3.12128394842147827148e-01) (13, 2.76082247495651245117e-01) (14, -7.27187320590019226074e-02) (15, -4.33102399110794067383e-01) (16, 1.71888500452041625977e-01) (17, 2.25253045558929443359e-01) (18, -2.40355953574180603027e-02) (19, 2.24169731140136718750e-01) (20, -4.05835956335067749023e-01) (21, 8.88804644346237182617e-02) (22, 2.94953048229217529297e-01) (23, 5.16706943511962890625e-01) (24, -1.46276369690895080566e-01) (25, 2.97715365886688232422e-02) (26, 2.56796061992645263672e-01) (27, 1.45912453532218933105e-01) (28, 3.66489022970199584961e-01) (29, 1.82598501443862915039e-01) (30, 4.16142404079437255859e-01) (31, 5.03656327724456787109e-01) (32, -3.16971331834793090820e-01) (33, -2.37343266606330871582e-01) (34, -1.00820809602737426758e-01) (35, 1.60155016928911209106e-02) (36, -3.60022187232971191406e-01) (37, 1.54393792152404785156e-01) (38, 2.97829896211624145508e-01) (39, 7.72195830941200256348e-02) (40, -4.57858890295028686523e-01) (41, -1.04879125952720642090e-01) (42, -2.89425373077392578125e-01) (43, -1.31409913301467895508e-01) (44, 7.46478885412216186523e-02) (45, -5.89148402214050292969e-02) (46, 3.72690886259078979492e-01) (47, 1.52078792452812194824e-01) (48, -2.38992071151733398438e+00) (0, 1.38360597193241119385e-02) (1, -1.16741135716438293457e-01) (2, -8.79788249731063842773e-02) (3, -8.15615337342023849487e-03) (4, -9.08536761999130249023e-02) (5, -2.72974103689193725586e-01) (6, -7.42846801877021789551e-02) (7, -8.67906063795089721680e-02) (8, 6.49222061038017272949e-02) (9, -4.76917177438735961914e-01) (10, 2.41888016462326049805e-02) (11, -1.98504030704498291016e-01) (12, -2.81902700662612915039e-01) (13, -7.93593376874923706055e-02) (14, 7.69192203879356384277e-02) (15, -1.13896638154983520508e-01) (16, -1.62341788411140441895e-01) (17, -5.67715346813201904297e-01) (18, -1.33293047547340393066e-01) (19, -3.20302814245223999023e-01) (20, -2.45334520936012268066e-01) (21, -3.66569489240646362305e-01) (22, -1.98190897703170776367e-01) (23, 1.63074940443038940430e-01) (24, -3.07400226593017578125e-01) (25, -4.76922988891601562500e-01) (26, -3.31599146127700805664e-01) (27, -2.60663419961929321289e-01) (28, -3.91889184713363647461e-01) (29, -3.60708981752395629883e-01) (30, 1.11155979335308074951e-01) (31, 1.35510757565498352051e-01) (32, -2.76993602514266967773e-01) (33, -5.20786046981811523438e-01) (34, -3.59476327896118164062e-01) (35, -3.54277282953262329102e-01) (36, -3.96215319633483886719e-01) (37, 1.00857357028871774673e-03) (38, 5.74463233351707458496e-02) (39, 1.35588999837636947632e-02) (40, 3.40827926993370056152e-02) (41, -2.01163306832313537598e-01) (42, -1.16176709532737731934e-01) (43, -4.58025753498077392578e-01) (44, -2.33595326542854309082e-01) (45, -6.84184283018112182617e-02) (46, -4.13475036621093750000e-02) (47, -2.72858310490846633911e-02) (48, -1.52267444133758544922e+00) (0, 1.07239492237567901611e-01) (1, -1.09227061271667480469e-01) (2, 5.82666173577308654785e-02) (3, 9.41351875662803649902e-02) (4, -1.48923859000205993652e-01) (5, -7.00727552175521850586e-02) (6, -5.78538067638874053955e-02) (7, -1.16863645613193511963e-01) (8, 1.35116517543792724609e-01) (9, -1.35849103331565856934e-01) (10, -5.99752552807331085205e-02) (11, -1.11683957278728485107e-01) (12, -1.06995873153209686279e-01) (13, -9.43071208894252777100e-03) (14, 5.98324202001094818115e-02) (15, -2.38862916827201843262e-01) (16, 2.74051055312156677246e-02) (17, -3.33177924156188964844e-01) (18, -8.06334763765335083008e-02) (19, -1.43617868423461914062e-01) (20, -3.45571637153625488281e-01) (21, -2.36620232462882995605e-01) (22, -1.83952569961547851562e-01) (23, 2.09421694278717041016e-01) (24, -9.86149385571479797363e-02) (25, -2.04306304454803466797e-01) (26, -2.29408070445060729980e-01) (27, -2.70274162292480468750e-01) (28, -1.49936705827713012695e-01) (29, -2.02061936259269714355e-01) (30, 1.61802619695663452148e-01) (31, 1.38574466109275817871e-01) (32, -7.23891183733940124512e-02) (33, -3.12500238418579101562e-01) (34, -3.49483489990234375000e-02) (35, -1.31929606199264526367e-01) (36, -4.13765907287597656250e-01) (37, -7.46416300535202026367e-02) (38, 6.01638620719313621521e-03) (39, 1.19865953922271728516e-01) (40, -3.28047648072242736816e-02) (41, -1.54686897993087768555e-01) (42, -1.84083923697471618652e-01) (43, -1.16059228777885437012e-01) (44, -1.73278108239173889160e-01) (45, -1.35229185223579406738e-01) (46, -1.04339450597763061523e-01) (47, 1.84953466057777404785e-01) (48, -1.63831663131713867188e+00) (0, 1.64439290761947631836e-01) (1, 2.52361267805099487305e-01) (2, 2.66606360673904418945e-01) (3, 1.31069839000701904297e-01) (4, -1.02842748165130615234e+00) (5, -5.08365094661712646484e-01) (6, -7.75647461414337158203e-01) (7, -1.89029797911643981934e-01) (8, 5.25655686855316162109e-01) (9, 3.43823313713073730469e-01) (10, 4.73600178956985473633e-01) (11, 3.57339054346084594727e-01) (12, -4.18727368116378784180e-01) (13, -4.09809917211532592773e-01) (14, -7.43624210357666015625e-01) (15, -5.43694972991943359375e-01) (16, 8.23940429836511611938e-03) (17, 7.15373039245605468750e-01) (18, 1.60798206925392150879e-01) (19, 9.40876305103302001953e-01) (20, -1.40281021595001220703e-01) (21, -1.94377198815345764160e-01) (22, -3.29328656196594238281e-01) (23, -5.54324686527252197266e-01) (24, -3.26404273509979248047e-01) (25, -3.12703669071197509766e-01) (26, 8.72077107429504394531e-01) (27, 5.64578950405120849609e-01) (28, 1.13235998153686523438e+00) (29, 2.09970772266387939453e-01) (30, -6.86290711164474487305e-02) (31, -8.53955030441284179688e-01) (32, -6.53171598911285400391e-01) (33, -8.23364555835723876953e-01) (34, -6.32637917995452880859e-01) (35, 4.00857001543045043945e-01) (36, 1.60509929060935974121e-01) (37, 3.68958324193954467773e-01) (38, 6.11054599285125732422e-01) (39, -2.02786818146705627441e-01) (40, -7.29482889175415039062e-01) (41, -5.63280582427978515625e-01) (42, -5.72807669639587402344e-01) (43, -2.25458651781082153320e-01) (44, -2.02211499214172363281e-01) (45, 7.48124897480010986328e-01) (46, 6.11419916152954101562e-01) (47, 5.31298041343688964844e-01) (48, -2.54208302497863769531e+00) (0, -1.06443442404270172119e-01) (1, -9.52281355857849121094e-02) (2, 2.59121470153331756592e-02) (3, -1.90543800592422485352e-01) (4, -2.56205778568983078003e-02) (5, -2.10833828896284103394e-02) (6, -1.52895227074623107910e-01) (7, -1.89785540103912353516e-01) (8, 2.21297927200794219971e-02) (9, 2.07017809152603149414e-02) (10, 9.85910519957542419434e-02) (11, -2.45181210339069366455e-02) (12, -3.68762940168380737305e-01) (13, -3.41744929552078247070e-01) (14, -1.78430408239364624023e-01) (15, -2.96852469444274902344e-01) (16, 2.19515338540077209473e-01) (17, 3.07220637798309326172e-01) (18, -1.48576453328132629395e-01) (19, -3.67007590830326080322e-02) (20, -2.13440090417861938477e-01) (21, 8.50840583443641662598e-02) (22, 1.59298986196517944336e-01) (23, 1.34697467088699340820e-01) (24, 2.37477362155914306641e-01) (25, 1.32322549819946289062e-01) (26, 2.83658266067504882812e-01) (27, -1.32840536534786224365e-02) (28, -1.04816462844610214233e-02) (29, 4.69789616763591766357e-02) (30, 2.56644815206527709961e-01) (31, 3.91138464212417602539e-01) (32, -2.84471601247787475586e-01) (33, 1.99852615594863891602e-01) (34, 1.84454903006553649902e-01) (35, 2.06341445446014404297e-01) (36, -1.71893969178199768066e-01) (37, 5.34031875431537628174e-02) (38, 1.05031400918960571289e-01) (39, -5.56813143193721771240e-02) (40, -3.32982599735260009766e-01) (41, 1.38070406392216682434e-02) (42, -8.20409506559371948242e-02) (43, 3.02492499351501464844e-01) (44, 4.88440282642841339111e-02) (45, 1.31349831819534301758e-01) (46, 9.48578342795372009277e-02) (47, -1.65166527032852172852e-01) (48, -1.60549879074096679688e+00) (0, 2.08880733698606491089e-02) (1, -1.47648558020591735840e-01) (2, -1.78980395197868347168e-01) (3, -3.03705558180809020996e-02) (4, -2.44025543332099914551e-01) (5, -5.75877845287322998047e-01) (6, -3.23719114065170288086e-01) (7, -3.16299766302108764648e-01) (8, 2.48093768954277038574e-01) (9, -8.76884460449218750000e-01) (10, -3.15541401505470275879e-02) (11, -4.03385728597640991211e-01) (12, -4.66328024864196777344e-01) (13, -3.68394643068313598633e-01) (14, 1.50924444198608398438e-01) (15, -2.56476819515228271484e-01) (16, -6.02984011173248291016e-01) (17, -1.03101432323455810547e+00) (18, -2.69078761339187622070e-01) (19, -5.05753755569458007812e-01) (20, -4.59047555923461914062e-01) (21, -3.31996619701385498047e-01) (22, -3.16623955965042114258e-01) (23, 4.29461197927594184875e-03) (24, -7.97746121883392333984e-01) (25, -1.10397124290466308594e+00) (26, -9.90428447723388671875e-01) (27, -6.80036962032318115234e-01) (28, -3.91125530004501342773e-01) (29, -7.71775305271148681641e-01) (30, -3.38760465383529663086e-01) (31, 1.58867146819829940796e-02) (32, -6.08849406242370605469e-01) (33, -1.28241217136383056641e+00) (34, -1.01479327678680419922e+00) (35, -1.12905311584472656250e+00) (36, -5.05056798458099365234e-01) (37, -2.08778515458106994629e-01) (38, -2.93811261653900146484e-01) (39, -1.87075421214103698730e-01) (40, 3.08277979493141174316e-02) (41, -7.04728245735168457031e-01) (42, -1.35735794901847839355e-01) (43, -1.44043064117431640625e+00) (44, -5.61768412590026855469e-01) (45, -3.67477834224700927734e-01) (46, 4.07630726695060729980e-02) (47, 5.96191436052322387695e-02) (48, -3.88468176126480102539e-01) (0, -7.37754702568054199219e-02) (1, -4.83379997313022613525e-02) (2, -1.93416699767112731934e-01) (3, -1.94688156247138977051e-01) (4, -3.94408643245697021484e-01) (5, -8.62904116511344909668e-02) (6, -1.70716956257820129395e-01) (7, 1.60871986299753189087e-02) (8, -5.20035102963447570801e-02) (9, -2.77935117483139038086e-01) (10, -7.74910300970077514648e-02) (11, -1.02524206042289733887e-01) (12, -2.51887977123260498047e-01) (13, -1.41268923878669738770e-01) (14, -1.67176470160484313965e-01) (15, 1.04462251067161560059e-01) (16, -2.36746355891227722168e-01) (17, -1.59488454461097717285e-01) (18, -2.48271673917770385742e-01) (19, -3.46653729677200317383e-01) (20, -2.66774624586105346680e-01) (21, -2.70251274108886718750e-01) (22, -1.93400219082832336426e-01) (23, -3.60497921705245971680e-01) (24, -1.29317685961723327637e-01) (25, -1.17572821676731109619e-01) (26, -3.04425865411758422852e-01) (27, -3.11271846294403076172e-01) (28, -3.04047167301177978516e-01) (29, -3.33995908498764038086e-01) (30, -4.87046211957931518555e-01) (31, -3.50746691226959228516e-01) (32, 9.33199524879455566406e-02) (33, -3.63222628831863403320e-01) (34, -3.66278171539306640625e-01) (35, -5.94550967216491699219e-01) (36, -4.29980218410491943359e-01) (37, -3.04951161146163940430e-01) (38, -3.60417425632476806641e-01) (39, -1.28666698932647705078e-01) (40, 1.55894845724105834961e-01) (41, -1.73528507351875305176e-01) (42, -1.94570377469062805176e-01) (43, -6.73134744167327880859e-01) (44, -5.44537961483001708984e-01) (45, -3.08672726154327392578e-01) (46, -3.99312525987625122070e-02) (47, -8.43121185898780822754e-02) (48, -1.18212544918060302734e+00) (0, -1.97681020945310592651e-02) (1, 1.74323275685310363770e-01) (2, 1.69826671481132507324e-01) (3, -1.28276124596595764160e-01) (4, 1.89984157681465148926e-01) (5, -1.68508216738700866699e-02) (6, -2.63232588768005371094e-01) (7, -8.75116288661956787109e-02) (8, -1.87897697091102600098e-01) (9, 4.76033747196197509766e-01) (10, 2.58782118558883666992e-01) (11, 2.11238861083984375000e-01) (12, -2.98949509859085083008e-01) (13, -4.60978418588638305664e-01) (14, -1.11108556389808654785e-01) (15, -2.73724436759948730469e-01) (16, 3.63208085298538208008e-01) (17, 5.23528277873992919922e-01) (18, 1.93513892590999603271e-02) (19, 2.53848969936370849609e-01) (20, -1.54051721096038818359e-01) (21, 1.09141424298286437988e-01) (22, 3.77135366201400756836e-01) (23, 8.68457317352294921875e-01) (24, 4.52528297901153564453e-01) (25, 2.67823040485382080078e-01) (26, 4.81717526912689208984e-01) (27, 2.07825824618339538574e-01) (28, 1.05759784579277038574e-01) (29, 2.73838430643081665039e-01) (30, 6.21253311634063720703e-01) (31, 7.53163516521453857422e-01) (32, -2.03731060028076171875e-01) (33, 4.89719122648239135742e-01) (34, 6.86002850532531738281e-01) (35, 3.69111716747283935547e-01) (36, -4.62640747427940368652e-02) (37, 4.46526616811752319336e-01) (38, 5.24299561977386474609e-01) (39, 1.71098887920379638672e-01) (40, -2.93873965740203857422e-01) (41, 1.28056943416595458984e-01) (42, -2.11243741214275360107e-02) (43, 7.12266981601715087891e-01) (44, 3.58889847993850708008e-01) (45, 3.82588833570480346680e-01) (46, 6.50584399700164794922e-02) (47, 1.25233677681535482407e-03) (48, -1.49880111217498779297e+00) (0, -1.09359852969646453857e-01) (1, -1.32753163576126098633e-01) (2, 1.28042444586753845215e-01) (3, -2.27217242121696472168e-01) (4, 2.65163391828536987305e-01) (5, 6.46690428256988525391e-02) (6, -6.99229836463928222656e-02) (7, -2.13831737637519836426e-02) (8, -2.43947207927703857422e-01) (9, 3.78451436758041381836e-01) (10, 4.36708688735961914062e-01) (11, 3.74212046153843402863e-03) (12, -2.83856898546218872070e-01) (13, -2.29931667447090148926e-01) (14, -3.71318489313125610352e-01) (15, -4.13063764572143554688e-01) (16, 3.73993635177612304688e-01) (17, 4.27257865667343139648e-01) (18, 3.03849041461944580078e-01) (19, 1.77951931953430175781e-01) (20, 8.58517885208129882812e-02) (21, 2.00689926743507385254e-01) (22, 2.62536972761154174805e-01) (23, 6.23122334480285644531e-01) (24, 4.16158497333526611328e-01) (25, 4.82298493385314941406e-01) (26, 5.42744398117065429688e-01) (27, 1.27963125705718994141e-01) (28, -1.05616092681884765625e-01) (29, 3.94801408052444458008e-01) (30, 7.15917885303497314453e-01) (31, 9.62658643722534179688e-01) (32, 1.14448964595794677734e-01) (33, 9.49428975582122802734e-01) (34, 7.97118663787841796875e-01) (35, 5.71954011917114257812e-01) (36, 1.57061845064163208008e-01) (37, 4.48333978652954101562e-01) (38, 3.81562590599060058594e-01) (39, 2.14293271303176879883e-01) (40, -8.50037187337875366211e-02) (41, 4.71418052911758422852e-01) (42, 3.92990075051784515381e-02) (43, 9.42394793033599853516e-01) (44, 2.04418182373046875000e-01) (45, 1.31649836897850036621e-01) (46, -4.60734888911247253418e-02) (47, 5.73403537273406982422e-02) (48, -1.43893039226531982422e+00) (0, -8.80434587597846984863e-02) (1, -1.38933151960372924805e-01) (2, -1.79151847958564758301e-01) (3, -1.20232544839382171631e-01) (4, -1.64168030023574829102e-01) (5, -5.51799945533275604248e-02) (6, -6.36960342526435852051e-02) (7, -1.19510337710380554199e-01) (8, -2.08415240049362182617e-02) (9, -5.40227852761745452881e-02) (10, -7.40247070789337158203e-02) (11, -1.14091999828815460205e-01) (12, -2.75466501712799072266e-01) (13, -1.23483568429946899414e-01) (14, -5.29476068913936614990e-02) (15, -9.26879346370697021484e-02) (16, -4.40956875681877136230e-02) (17, -1.61568015813827514648e-01) (18, -6.38351589441299438477e-02) (19, -1.31871908903121948242e-01) (20, -1.59961983561515808105e-01) (21, -1.78360179066658020020e-01) (22, -1.37561574578285217285e-01) (23, -1.14660456776618957520e-01) (24, 5.93507941812276840210e-03) (25, -1.49509817361831665039e-01) (26, -8.52996483445167541504e-02) (27, -3.07808667421340942383e-01) (28, -2.14697033166885375977e-01) (29, -1.48254334926605224609e-01) (30, -1.08752779662609100342e-01) (31, -1.30093097686767578125e-01) (32, 5.84148652851581573486e-02) (33, -3.65000925958156585693e-02) (34, -8.98977890610694885254e-02) (35, -1.86124399304389953613e-01) (36, -3.54474723339080810547e-01) (37, -2.38390415906906127930e-01) (38, -2.02036231756210327148e-01) (39, -1.49702712893486022949e-01) (40, 6.36788904666900634766e-02) (41, -5.26295192539691925049e-02) (42, -1.70134603977203369141e-01) (43, -3.21495383977890014648e-01) (44, -2.46704325079917907715e-01) (45, -7.80943557620048522949e-02) (46, -1.57035440206527709961e-01) (47, -1.65505200624465942383e-01) (48, -1.49342775344848632812e+00) (0, -2.31341621838510036469e-03) (1, -1.61875993013381958008e-01) (2, -1.53556838631629943848e-01) (3, -4.44852299988269805908e-02) (4, -2.32609897851943969727e-01) (5, -1.78995192050933837891e-01) (6, -6.83775031939148902893e-03) (7, -1.88478589057922363281e-01) (8, 3.70170511305332183838e-02) (9, -2.41300031542778015137e-01) (10, -2.19412162899971008301e-01) (11, -2.43524238467216491699e-01) (12, -4.64896932244300842285e-02) (13, -3.47988633438944816589e-03) (14, 1.84940040111541748047e-01) (15, -1.54449835419654846191e-01) (16, -6.07871524989604949951e-02) (17, -2.88912773132324218750e-01) (18, -3.00439655780792236328e-01) (19, -3.94844979047775268555e-01) (20, -2.65288144350051879883e-01) (21, -3.12410026788711547852e-01) (22, -2.30443432927131652832e-01) (23, -9.31489840149879455566e-02) (24, -1.25446885824203491211e-01) (25, -2.20250740647315979004e-01) (26, -2.11358338594436645508e-01) (27, -4.08289730548858642578e-01) (28, -2.42016091942787170410e-01) (29, -3.19379329681396484375e-01) (30, -2.20941510051488876343e-02) (31, -2.91666775941848754883e-01) (32, -1.69022992253303527832e-01) (33, -3.25178086757659912109e-01) (34, -3.01232963800430297852e-01) (35, -3.37213575839996337891e-01) (36, -4.34296816587448120117e-01) (37, -3.41658711433410644531e-01) (38, -3.27869683504104614258e-01) (39, -1.31766304373741149902e-01) (40, -6.21238015592098236084e-02) (41, -2.48768240213394165039e-01) (42, -1.59464627504348754883e-01) (43, -4.94094699621200561523e-01) (44, -4.52189981937408447266e-01) (45, -1.35973498225212097168e-01) (46, -1.61852717399597167969e-01) (47, -1.02108165621757507324e-01) (48, -1.34402108192443847656e+00) (0, -1.13952748477458953857e-01) (1, -7.99504891037940979004e-02) (2, 1.26725910231471061707e-02) (3, -1.41357585787773132324e-01) (4, 1.97679195553064346313e-02) (5, 6.88880980014801025391e-02) (6, -2.29596257209777832031e-01) (7, -9.02503356337547302246e-02) (8, -2.40590542554855346680e-01) (9, -1.72133356332778930664e-01) (10, -5.13711236417293548584e-02) (11, -1.24823592603206634521e-01) (12, -1.69207826256752014160e-01) (13, -1.47219613194465637207e-01) (14, -2.11629301309585571289e-01) (15, -2.05344498157501220703e-01) (16, -1.29448488354682922363e-01) (17, -1.33741721510887145996e-01) (18, 2.16584280133247375488e-01) (19, 4.95891943573951721191e-02) (20, -4.61060293018817901611e-02) (21, -1.67748019099235534668e-01) (22, 3.84320914745330810547e-02) (23, 2.65547007322311401367e-01) (24, -1.54321819543838500977e-01) (25, -1.04719333350658416748e-01) (26, 2.13401809334754943848e-01) (27, 5.64431026577949523926e-02) (28, -3.18650126457214355469e-01) (29, 1.75403058528900146484e-01) (30, 3.47487360239028930664e-01) (31, 4.05515342950820922852e-01) (32, 6.69526830315589904785e-02) (33, 2.36115634441375732422e-01) (34, 3.77132505178451538086e-01) (35, 1.47427901625633239746e-01) (36, 4.21446934342384338379e-03) (37, 2.15128064155578613281e-01) (38, 4.07767295837402343750e-01) (39, 1.05290509760379791260e-01) (40, -9.11778062582015991211e-02) (41, 1.69847711920738220215e-01) (42, 4.74352687597274780273e-02) (43, 3.08215200901031494141e-01) (44, -7.49924480915069580078e-02) (45, 4.96225170791149139404e-02) (46, 3.05745936930179595947e-02) (47, 7.92055577039718627930e-03) (48, -1.69396984577178955078e+00) (0, -1.13994432613253593445e-02) (1, 6.30856826901435852051e-02) (2, 7.70024582743644714355e-02) (3, -1.61337256431579589844e-01) (4, 1.11087795812636613846e-03) (5, -3.68451327085494995117e-02) (6, -5.09073249995708465576e-02) (7, -1.29584409296512603760e-02) (8, 1.49645432829856872559e-02) (9, 2.54130870103836059570e-01) (10, 9.50520783662796020508e-02) (11, 8.25882777571678161621e-02) (12, -2.50274002552032470703e-01) (13, -3.39014917612075805664e-01) (14, -1.39354452490806579590e-01) (15, -4.11094039678573608398e-01) (16, 3.54699969291687011719e-01) (17, 4.12843167781829833984e-01) (18, 1.10916465520858764648e-01) (19, 9.13564115762710571289e-02) (20, -1.51226103305816650391e-01) (21, 5.31132007017731666565e-03) (22, -2.48922947794198989868e-02) (23, 3.39905858039855957031e-01) (24, 2.45990559458732604980e-01) (25, 3.23928207159042358398e-01) (26, 3.04742872714996337891e-01) (27, 1.11445508897304534912e-01) (28, -1.19763249531388282776e-02) (29, 2.35790118575096130371e-01) (30, 4.88938927650451660156e-01) (31, 5.95438838005065917969e-01) (32, -1.70140594244003295898e-01) (33, 4.27664190530776977539e-01) (34, 4.20542061328887939453e-01) (35, 2.27776318788528442383e-01) (36, -3.22292372584342956543e-02) (37, 3.34415555000305175781e-01) (38, 3.10328900814056396484e-01) (39, 8.88353809714317321777e-02) (40, -1.73024073243141174316e-01) (41, 8.93509015440940856934e-03) (42, -7.54973962903022766113e-02) (43, 4.68939512968063354492e-01) (44, 2.02508464455604553223e-01) (45, 3.11430692672729492188e-01) (46, 1.36719480156898498535e-01) (47, 3.89728508889675140381e-02) (48, -1.64027082920074462891e+00) (0, -1.47300720214843750000e-01) (1, -1.97223469614982604980e-01) (2, -1.20488606393337249756e-01) (3, -3.72303090989589691162e-02) (4, -7.03179299831390380859e-01) (5, -6.30052149295806884766e-01) (6, -2.54469275474548339844e-01) (7, -2.88500096648931503296e-02) (8, 1.46898478269577026367e-01) (9, -5.86402475833892822266e-01) (10, -4.70669902861118316650e-02) (11, -3.50273251533508300781e-01) (12, -6.04097843170166015625e-01) (13, -1.22774355113506317139e-01) (14, -1.01123983040452003479e-02) (15, 8.35646316409111022949e-02) (16, -5.64018249511718750000e-01) (17, -6.30139946937561035156e-01) (18, -3.23946177959442138672e-01) (19, -3.95349651575088500977e-01) (20, -3.00525605678558349609e-01) (21, -4.54605221748352050781e-01) (22, -3.64738553762435913086e-01) (23, -4.18916404247283935547e-01) (24, -5.99386692047119140625e-01) (25, -5.52230417728424072266e-01) (26, -7.19562411308288574219e-01) (27, -5.08543312549591064453e-01) (28, -5.15189766883850097656e-01) (29, -6.27093255519866943359e-01) (30, -6.13597035408020019531e-01) (31, -2.58401662111282348633e-01) (32, -3.30837965011596679688e-01) (33, -7.39003658294677734375e-01) (34, -7.51627326011657714844e-01) (35, -1.09527695178985595703e+00) (36, -4.40316945314407348633e-01) (37, -4.06925827264785766602e-01) (38, -5.51838390529155731201e-02) (39, -8.67274357005953788757e-04) (40, 1.08461506664752960205e-01) (41, -4.23924744129180908203e-01) (42, 1.12528555095195770264e-01) (43, -1.55428421497344970703e+00) (44, -5.53223967552185058594e-01) (45, -2.83049136400222778320e-01) (46, 1.22210308909416198730e-01) (47, 5.55646941065788269043e-02) (48, -5.00382483005523681641e-01) (0, 3.02070081233978271484e-02) (1, -2.18202874064445495605e-01) (2, -9.82538983225822448730e-02) (3, -1.29772737622261047363e-01) (4, -1.58883124589920043945e-01) (5, -3.05990904569625854492e-01) (6, -2.85300701856613159180e-01) (7, -3.11109006404876708984e-01) (8, 1.89664125442504882812e-01) (9, 1.97328850626945495605e-01) (10, 1.98553964495658874512e-01) (11, 1.78611427545547485352e-01) (12, -2.62060701847076416016e-01) (13, -5.24878263473510742188e-01) (14, -1.85624077916145324707e-01) (15, -3.05894315242767333984e-01) (16, 2.53995507955551147461e-01) (17, 1.29012510180473327637e-01) (18, -1.22346222400665283203e-01) (19, 9.78323817253112792969e-02) (20, 1.37317746877670288086e-01) (21, 3.14775049686431884766e-01) (22, 3.79862755537033081055e-01) (23, 7.20302462577819824219e-02) (24, 2.76417911052703857422e-01) (25, 1.24293953180313110352e-01) (26, 1.88959930092096328735e-02) (27, 9.02563557028770446777e-02) (28, 1.15390844643115997314e-01) (29, -1.09561137855052947998e-01) (30, 1.18030332028865814209e-01) (31, 5.63883244991302490234e-01) (32, -4.48675394058227539062e-01) (33, 3.34791362285614013672e-01) (34, 1.36518225073814392090e-01) (35, -1.20268754661083221436e-01) (36, -2.32719764113426208496e-01) (37, 5.21249929443001747131e-03) (38, 2.45431944727897644043e-01) (39, -1.14991620182991027832e-01) (40, -4.45098340511322021484e-01) (41, 5.86762279272079467773e-02) (42, -1.39983937144279479980e-01) (43, 1.26378476619720458984e-01) (44, 4.74098920822143554688e-02) (45, 3.34160111378878355026e-04) (46, -2.18218993395566940308e-02) (47, -1.03549644351005554199e-01) (48, -1.81548976898193359375e+00) (0, 6.02708607912063598633e-02) (1, -7.24298879504203796387e-02) (2, 1.24645335599780082703e-02) (3, -3.78484278917312622070e-01) (4, -2.86928176879882812500e-01) (5, -8.57363045215606689453e-02) (6, -1.57172799110412597656e-01) (7, -2.84978710114955902100e-02) (8, 2.96568423509597778320e-01) (9, 1.12419709563255310059e-01) (10, 2.76873856782913208008e-01) (11, 8.00650045275688171387e-02) (12, -6.69510900974273681641e-01) (13, -4.96220737695693969727e-01) (14, -1.52631759643554687500e-01) (15, -2.17062458395957946777e-01) (16, 2.33080685138702392578e-01) (17, 4.91378724575042724609e-01) (18, -9.54123139381408691406e-02) (19, 1.36819556355476379395e-01) (20, -2.12227508425712585449e-01) (21, -3.01212668418884277344e-01) (22, -2.93512344360351562500e-01) (23, -1.38422707095742225647e-02) (24, 7.01024308800697326660e-02) (25, 2.90756434202194213867e-01) (26, 5.41058719158172607422e-01) (27, 3.51106941699981689453e-01) (28, 4.76914256811141967773e-01) (29, 6.26922696828842163086e-02) (30, 1.29413187503814697266e-01) (31, 1.31879538297653198242e-01) (32, -2.87543833255767822266e-01) (33, -9.06383991241455078125e-02) (34, 1.33312210440635681152e-01) (35, 2.27129101753234863281e-01) (36, 1.51759907603263854980e-02) (37, 3.41143012046813964844e-01) (38, 9.59515273571014404297e-02) (39, -1.23204901814460754395e-01) (40, -4.20596569776535034180e-01) (41, -7.29031562805175781250e-02) (42, -2.00383692979812622070e-01) (43, 1.09395280480384826660e-01) (44, 4.37689423561096191406e-02) (45, 6.18186831474304199219e-01) (46, 2.39544346928596496582e-01) (47, 8.60807225108146667480e-02) (48, -1.86890292167663574219e+00) (0, -9.82617028057575225830e-03) (1, -3.77504937350749969482e-02) (2, -2.00720597058534622192e-02) (3, -2.25301817059516906738e-01) (4, 2.31443550437688827515e-02) (5, 2.41231452673673629761e-02) (6, -1.27737253904342651367e-01) (7, -1.15352220833301544189e-01) (8, 4.08670119941234588623e-03) (9, 3.10050901025533676147e-02) (10, 3.76143008470535278320e-02) (11, 2.00535934418439865112e-02) (12, -2.08618447184562683105e-01) (13, -2.50113219022750854492e-01) (14, -7.88021832704544067383e-02) (15, -8.84680524468421936035e-02) (16, -1.76971184555441141129e-03) (17, 9.70523729920387268066e-02) (18, -4.39687119796872138977e-03) (19, -4.70235012471675872803e-02) (20, 5.29923476278781890869e-03) (21, 3.85624319314956665039e-02) (22, 5.64252622425556182861e-02) (23, 3.18188965320587158203e-02) (24, 5.99063448607921600342e-02) (25, -2.99708191305398941040e-02) (26, 3.69155667722225189209e-02) (27, -3.49801406264305114746e-02) (28, -1.32865920662879943848e-01) (29, -6.95433020591735839844e-02) (30, 1.41707941889762878418e-01) (31, 1.71783342957496643066e-01) (32, -1.56883612275123596191e-01) (33, 1.92012652754783630371e-01) (34, 6.57426863908767700195e-02) (35, -2.29392526671290397644e-03) (36, -1.43230229616165161133e-01) (37, 1.48464376106858253479e-02) (38, 1.03143297135829925537e-01) (39, -3.24643887579441070557e-02) (40, -1.52568235993385314941e-01) (41, -6.19658827781677246094e-03) (42, -1.10941082239151000977e-02) (43, -8.03504663053900003433e-05) (44, 9.41586215049028396606e-03) (45, -2.42620576173067092896e-02) (46, -8.24683979153633117676e-02) (47, -6.22756071388721466064e-02) (48, -1.62093067169189453125e+00) (0, -2.25161269307136535645e-01) (1, -2.49949991703033447266e-01) (2, 8.66887252777814865112e-03) (3, -5.38731459528207778931e-04) (4, 3.54834944009780883789e-01) (5, -1.29723073914647102356e-02) (6, -2.26678580045700073242e-01) (7, -1.51911959052085876465e-01) (8, -4.42683756351470947266e-01) (9, -1.97040081024169921875e-01) (10, 1.24139972031116485596e-01) (11, -1.59698069095611572266e-01) (12, 1.07466369867324829102e-01) (13, -4.91373091936111450195e-02) (14, -5.05727410316467285156e-01) (15, -2.00263112783432006836e-01) (16, -1.64227232336997985840e-01) (17, 3.17467153072357177734e-02) (18, 4.06384617090225219727e-01) (19, 3.83619844913482666016e-01) (20, 2.33462631702423095703e-01) (21, -1.30112379789352416992e-01) (22, 2.22680807113647460938e-01) (23, 1.60291165113449096680e-01) (24, -8.76747518777847290039e-02) (25, -9.22645814716815948486e-03) (26, 3.16460043191909790039e-01) (27, 1.64350986480712890625e-01) (28, -3.84228706359863281250e-01) (29, 3.29493850469589233398e-01) (30, 4.06396150588989257812e-01) (31, 2.99754500389099121094e-01) (32, 9.72170606255531311035e-02) (33, 3.32481771707534790039e-01) (34, 4.26652014255523681641e-01) (35, 3.14421236515045166016e-01) (36, -5.76007552444934844971e-03) (37, 2.15044334530830383301e-01) (38, 3.20164173841476440430e-01) (39, -9.19205769896507263184e-02) (40, 1.23489938676357269287e-01) (41, 2.24490538239479064941e-01) (42, 8.58739316463470458984e-02) (43, 2.60226637125015258789e-01) (44, -1.04932814836502075195e-01) (45, 4.77131567895412445068e-02) (46, -2.48161971569061279297e-01) (47, -1.35760203003883361816e-01) (48, -1.78989529609680175781e+00) (0, -1.63277477025985717773e-01) (1, -1.77102804183959960938e-01) (2, -3.66818718612194061279e-02) (3, -1.15572638809680938721e-01) (4, -7.62733295559883117676e-02) (5, -6.11360184848308563232e-03) (6, -1.27813220024108886719e-01) (7, 2.68102139234542846680e-02) (8, -1.60653188824653625488e-01) (9, -1.22582189738750457764e-01) (10, -2.65204701572656631470e-02) (11, 6.97412854060530662537e-03) (12, -2.02260643243789672852e-01) (13, -1.51263669133186340332e-01) (14, -1.40794999897480010986e-02) (15, -1.64275124669075012207e-01) (16, -1.12973839044570922852e-01) (17, -8.89620035886764526367e-02) (18, 4.14544045925140380859e-02) (19, -1.36385515332221984863e-01) (20, -8.79657492041587829590e-02) (21, -5.94133585691452026367e-02) (22, -1.23785629868507385254e-01) (23, -4.30437326431274414062e-02) (24, -6.56732544302940368652e-02) (25, -2.62905340641736984253e-02) (26, -8.85994061827659606934e-02) (27, -1.68328210711479187012e-01) (28, -1.85478687286376953125e-01) (29, -2.65482254326343536377e-02) (30, 6.93019554018974304199e-02) (31, 1.01136691868305206299e-01) (32, -9.58361569792032241821e-03) (33, 1.76241695880889892578e-02) (34, 1.13731689751148223877e-01) (35, -4.65532578527927398682e-02) (36, -1.84501528739929199219e-01) (37, -7.59664699435234069824e-02) (38, 3.12233567237854003906e-02) (39, 2.63339770026504993439e-03) (40, -3.41640636324882507324e-02) (41, 4.10968698561191558838e-02) (42, -4.62000779807567596436e-02) (43, -1.80390272289514541626e-02) (44, -9.66653972864151000977e-02) (45, 2.36807819455862045288e-02) (46, -9.11437869071960449219e-02) (47, -1.78507387638092041016e-01) (48, -1.59971952438354492188e+00) (0, -6.01443126797676086426e-02) (1, -1.13498426973819732666e-01) (2, -1.46873220801353454590e-01) (3, -1.43049433827400207520e-01) (4, -5.24305105209350585938e-01) (5, -4.09213781356811523438e-01) (6, -7.54385516047477722168e-02) (7, 1.43870502710342407227e-01) (8, 1.80336952209472656250e-01) (9, -4.57757890224456787109e-01) (10, -2.58746743202209472656e-01) (11, -2.48979583382606506348e-01) (12, -5.25514900684356689453e-01) (13, -1.12913608551025390625e-01) (14, -2.39090039394795894623e-03) (15, 1.10737115144729614258e-01) (16, -3.17955315113067626953e-01) (17, -3.70418190956115722656e-01) (18, -3.64269703626632690430e-01) (19, -5.28861165046691894531e-01) (20, -4.82646018266677856445e-01) (21, -3.85420769453048706055e-01) (22, -4.26348477602005004883e-01) (23, -6.85020327568054199219e-01) (24, -3.23778778314590454102e-01) (25, -4.39181894063949584961e-01) (26, -7.08352148532867431641e-01) (27, -5.90968668460845947266e-01) (28, -4.40432548522949218750e-01) (29, -6.17419958114624023438e-01) (30, -7.09998965263366699219e-01) (31, -5.26034891605377197266e-01) (32, 8.23778435587882995605e-02) (33, -6.56850695610046386719e-01) (34, -6.77705049514770507812e-01) (35, -9.64078485965728759766e-01) (36, -5.32668530941009521484e-01) (37, -4.32887107133865356445e-01) (38, -3.36255729198455810547e-01) (39, 3.82095500826835632324e-02) (40, 1.21746703982353210449e-01) (41, -3.50649356842041015625e-01) (42, -3.19041684269905090332e-02) (43, -1.33308684825897216797e+00) (44, -6.66852295398712158203e-01) (45, -4.64028060436248779297e-01) (46, 2.52833645790815353394e-02) (47, 3.58521156013011932373e-02) (48, -4.23300087451934814453e-01) (0, -1.94305628538131713867e-01) (1, -1.76505312323570251465e-01) (2, 7.03416466712951660156e-02) (3, -1.67026370763778686523e-01) (4, -2.09087669849395751953e-01) (5, -6.13392852246761322021e-02) (6, -8.19592028856277465820e-02) (7, -3.64165976643562316895e-02) (8, -1.36065661907196044922e-01) (9, -1.15969162434339523315e-02) (10, 1.23098678886890411377e-01) (11, 5.97350150346755981445e-02) (12, -2.36199617385864257812e-01) (13, -2.27768853306770324707e-01) (14, -3.55949312448501586914e-01) (15, 3.38211096823215484619e-02) (16, -6.97914212942123413086e-02) (17, 1.31904467940330505371e-01) (18, -7.98477008938789367676e-02) (19, -9.96670573949813842773e-02) (20, -2.21397295594215393066e-01) (21, -1.87947005033493041992e-01) (22, -2.71463654935359954834e-02) (23, -2.29471862316131591797e-01) (24, 8.28754622489213943481e-03) (25, -1.09512627124786376953e-01) (26, -2.19153538346290588379e-01) (27, -1.40961334109306335449e-01) (28, -3.91289472579956054688e-01) (29, -8.51576402783393859863e-02) (30, -2.63423532247543334961e-01) (31, -3.00814867019653320312e-01) (32, 1.10457725822925567627e-01) (33, -7.00782015919685363770e-02) (34, -2.38557979464530944824e-01) (35, -2.70001471042633056641e-01) (36, -3.72789382934570312500e-01) (37, -2.22855627536773681641e-01) (38, -1.63016721606254577637e-01) (39, -2.59978771209716796875e-01) (40, 4.52873250469565391541e-03) (41, 3.33745367825031280518e-02) (42, -1.08365766704082489014e-01) (43, -3.64123195409774780273e-01) (44, -3.87105286121368408203e-01) (45, -2.36060604453086853027e-01) (46, -1.17627710103988647461e-01) (47, -2.77001500129699707031e-01) (48, -1.51239717006683349609e+00) (0, 7.89928138256072998047e-02) (1, -5.66642023622989654541e-02) (2, -1.10690400004386901855e-01) (3, -7.70462602376937866211e-02) (4, -5.43420910835266113281e-02) (5, 6.59467792138457298279e-03) (6, 2.94606965035200119019e-02) (7, 9.20190736651420593262e-02) (8, -1.56000807881355285645e-01) (9, -1.42530882731080055237e-02) (10, 4.14074845612049102783e-02) (11, -1.75164312124252319336e-01) (12, -2.64811575412750244141e-01) (13, -5.32692484557628631592e-02) (14, 1.23052082955837249756e-01) (15, -2.05387100577354431152e-01) (16, 6.84294849634170532227e-02) (17, -9.89160090684890747070e-02) (18, 4.59672138094902038574e-02) (19, -1.48293927311897277832e-01) (20, -1.40108212828636169434e-01) (21, -1.10672682523727416992e-01) (22, -1.58075764775276184082e-01) (23, 2.47616365551948547363e-01) (24, -4.93932217359542846680e-02) (25, 8.88189822435379028320e-02) (26, 1.02081313729286193848e-01) (27, 3.22463624179363250732e-02) (28, -2.05041036009788513184e-01) (29, 7.85138756036758422852e-02) (30, 1.18816003203392028809e-01) (31, 1.56428828835487365723e-01) (32, 2.67386324703693389893e-02) (33, -4.23038937151432037354e-02) (34, 2.12985455989837646484e-01) (35, 7.75571272242814302444e-04) (36, -1.54792159795761108398e-01) (37, 7.93896540999412536621e-02) (38, -2.16626226902008056641e-02) (39, 8.22151973843574523926e-02) (40, 4.81139048933982849121e-02) (41, -4.42973189055919647217e-02) (42, 1.88458170741796493530e-02) (43, 1.24728687107563018799e-01) (44, -5.94758847728371620178e-03) (45, 1.58330164849758148193e-02) (46, -1.39945909380912780762e-01) (47, 9.15291719138622283936e-03) (48, -1.64668953418731689453e+00) (0, -3.32970544695854187012e-02) (1, -1.10292010009288787842e-01) (2, -2.20215588808059692383e-01) (3, -2.30383306741714477539e-01) (4, -3.25795173645019531250e-01) (5, -2.00300022959709167480e-01) (6, -1.00809946656227111816e-01) (7, -9.71987769007682800293e-02) (8, -1.18260771036148071289e-01) (9, -1.61234989762306213379e-01) (10, -2.49995857477188110352e-01) (11, -2.53207981586456298828e-01) (12, -2.28543981909751892090e-01) (13, -1.25768691301345825195e-01) (14, -1.57868897076696157455e-03) (15, 1.38430505990982055664e-01) (16, -2.03632131218910217285e-01) (17, -1.94192543625831604004e-01) (18, -9.90137830376625061035e-02) (19, -3.63136678934097290039e-01) (20, -3.29461067914962768555e-01) (21, -3.35204720497131347656e-01) (22, -2.97721296548843383789e-01) (23, -2.43226885795593261719e-01) (24, -2.93095898814499378204e-03) (25, -2.39171862602233886719e-01) (26, -2.23295792937278747559e-01) (27, -2.51251518726348876953e-01) (28, -3.20863395929336547852e-01) (29, -3.64669889211654663086e-01) (30, -2.79245764017105102539e-01) (31, -3.62167239189147949219e-01) (32, 6.46643638610839843750e-02) (33, -3.06773006916046142578e-01) (34, -3.72824102640151977539e-01) (35, -4.75047051906585693359e-01) (36, -4.47446525096893310547e-01) (37, -3.37547510862350463867e-01) (38, -3.16936105489730834961e-01) (39, -1.52723506093025207520e-01) (40, 5.38250654935836791992e-02) (41, -1.31995141506195068359e-01) (42, 1.49304810911417007446e-02) (43, -4.57736492156982421875e-01) (44, -3.26335370540618896484e-01) (45, -2.44305223226547241211e-01) (46, -7.96899646520614624023e-02) (47, -1.33115112781524658203e-01) (48, -1.28957533836364746094e+00) (0, -6.91074356436729431152e-02) (1, -1.89562723040580749512e-01) (2, -5.70353828370571136475e-02) (3, -9.83344987034797668457e-02) (4, -1.24626837670803070068e-01) (5, -6.65164142847061157227e-02) (6, -1.39202430844306945801e-01) (7, -8.77415910363197326660e-02) (8, -1.79155379533767700195e-01) (9, -7.79204815626144409180e-02) (10, -1.41315713524818420410e-01) (11, -6.53937160968780517578e-02) (12, -3.03780555725097656250e-01) (13, -7.42992460727691650391e-02) (14, -9.77887585759162902832e-02) (15, 2.96085942536592483521e-02) (16, -1.09107896685600280762e-01) (17, -1.00272297859191894531e-01) (18, -2.05047011375427246094e-01) (19, -2.20896705985069274902e-01) (20, -2.34056398272514343262e-01) (21, -1.52392521500587463379e-01) (22, -1.15467280149459838867e-01) (23, -8.82197320461273193359e-02) (24, 2.06132940948009490967e-02) (25, -1.04563556611537933350e-01) (26, -2.25104212760925292969e-01) (27, -1.05463713407516479492e-01) (28, -1.61583840847015380859e-01) (29, -1.16286709904670715332e-01) (30, -1.86450630426406860352e-01) (31, -1.92573606967926025391e-01) (32, 9.45427082479000091553e-03) (33, -9.73075777292251586914e-02) (34, -6.61906674504280090332e-02) (35, -1.95909634232521057129e-01) (36, -3.09414029121398925781e-01) (37, -1.46938383579254150391e-01) (38, -1.28490924835205078125e-01) (39, -1.32978469133377075195e-01) (40, 2.25861184298992156982e-02) (41, -1.24624863266944885254e-01) (42, -1.26244068145751953125e-01) (43, -2.23569735884666442871e-01) (44, -3.06463867425918579102e-01) (45, -1.41583338379859924316e-01) (46, -1.65931552648544311523e-01) (47, -7.03434348106384277344e-02) (48, -1.53273940086364746094e+00) (0, 1.87498666346073150635e-02) (1, -1.65273785591125488281e-01) (2, -3.26263725757598876953e-01) (3, -2.83553510904312133789e-01) (4, -4.44893091917037963867e-01) (5, -1.29594817757606506348e-01) (6, -2.02396556735038757324e-01) (7, -2.03392311930656433105e-01) (8, 4.39509563148021697998e-02) (9, -1.99151962995529174805e-01) (10, -1.60554558038711547852e-01) (11, -1.96161627769470214844e-01) (12, -3.97146552801132202148e-01) (13, -1.51660427451133728027e-01) (14, -6.23544193804264068604e-02) (15, -2.68790181726217269897e-02) (16, -5.03544956445693969727e-02) (17, -9.23816859722137451172e-02) (18, -1.41190275549888610840e-01) (19, -3.12076210975646972656e-01) (20, -4.64130997657775878906e-01) (21, -3.57809633016586303711e-01) (22, -2.03947231173515319824e-01) (23, -2.13933333754539489746e-01) (24, 2.42246702313423156738e-01) (25, -1.18068411946296691895e-01) (26, -6.17741718888282775879e-02) (27, -2.88701832294464111328e-01) (28, -2.14558795094490051270e-01) (29, -4.12429809570312500000e-01) (30, -3.46451193094253540039e-01) (31, -5.54541707038879394531e-01) (32, -1.11418098211288452148e-01) (33, -1.33645087480545043945e-01) (34, -1.66335254907608032227e-01) (35, -2.07187294960021972656e-01) (36, -4.05844360589981079102e-01) (37, -2.85814315080642700195e-01) (38, -5.02561986446380615234e-01) (39, -1.74238920211791992188e-01) (40, -2.27812826633453369141e-01) (41, -1.97449147701263427734e-01) (42, -1.89913436770439147949e-02) (43, -1.10976934432983398438e-01) (44, -5.00734150409698486328e-01) (45, 4.26485855132341384888e-03) (46, -8.71970783919095993042e-03) (47, -1.83460935950279235840e-01) (48, -1.44105541706085205078e+00) (0, -7.68029317259788513184e-02) (1, -1.00870355963706970215e-01) (2, -1.66877478361129760742e-01) (3, -1.57713055610656738281e-01) (4, -1.94895923137664794922e-01) (5, 1.39351904392242431641e-01) (6, 7.21189826726913452148e-02) (7, -5.63271269202232360840e-02) (8, -1.50803118944168090820e-01) (9, -2.44632884860038757324e-01) (10, -1.13655015826225280762e-01) (11, -2.30162486433982849121e-01) (12, -2.51055032014846801758e-01) (13, 5.85697777569293975830e-02) (14, -4.81069758534431457520e-02) (15, -1.92325562238693237305e-01) (16, -9.19035524129867553711e-02) (17, -8.04119706153869628906e-02) (18, 5.55503480136394500732e-02) (19, -8.85543301701545715332e-02) (20, 1.17778651416301727295e-01) (21, -3.28275784850120544434e-02) (22, -5.49018904566764831543e-02) (23, 3.54359708726406097412e-02) (24, -3.59398089349269866943e-02) (25, 7.18068331480026245117e-02) (26, -9.13550332188606262207e-02) (27, 5.72844892740249633789e-02) (28, -3.66776622831821441650e-02) (29, 2.29153960943222045898e-01) (30, 1.71339705586433410645e-01) (31, 9.68349203467369079590e-02) (32, 1.96222692728042602539e-01) (33, -4.79462221264839172363e-02) (34, 1.12456023693084716797e-01) (35, 2.44434311985969543457e-01) (36, 8.87189731001853942871e-02) (37, 2.32054516673088073730e-02) (38, 4.97576221823692321777e-02) (39, -3.00849191844463348389e-02) (40, 1.51528894901275634766e-01) (41, 7.71736726164817810059e-02) (42, 1.50618791580200195312e-01) (43, 1.77125677466392517090e-01) (44, -2.25585643202066421509e-02) (45, -1.04538761079311370850e-01) (46, -2.15839684009552001953e-01) (47, -1.05141578242182731628e-02) (48, -1.68132710456848144531e+00) (0, -7.60594680905342102051e-02) (1, -2.29358404874801635742e-01) (2, -1.62095263600349426270e-01) (3, -1.58015564084053039551e-01) (4, -3.98795127868652343750e-01) (5, -1.17434442043304443359e-01) (6, -1.62045538425445556641e-01) (7, -1.93271666765213012695e-01) (8, 8.56193825602531433105e-02) (9, -1.37453660368919372559e-01) (10, -2.06639081239700317383e-01) (11, -2.62686073780059814453e-01) (12, -2.40066498517990112305e-01) (13, -1.90595373511314392090e-01) (14, 2.55399774760007858276e-02) (15, -1.68977584689855575562e-02) (16, -1.52558004483580589294e-02) (17, -1.56285464763641357422e-01) (18, -1.26761615276336669922e-01) (19, -3.20894002914428710938e-01) (20, -3.39125961065292358398e-01) (21, -3.15265774726867675781e-01) (22, -2.60754108428955078125e-01) (23, -1.86329618096351623535e-01) (24, 8.86249393224716186523e-02) (25, -2.06147819757461547852e-01) (26, -1.42122328281402587891e-01) (27, -2.81405627727508544922e-01) (28, -2.31776177883148193359e-01) (29, -3.57873827219009399414e-01) (30, -1.73613891005516052246e-01) (31, -3.71940374374389648438e-01) (32, -3.77007387578487396240e-02) (33, -2.70508885383605957031e-01) (34, -1.93577438592910766602e-01) (35, -3.79868924617767333984e-01) (36, -4.15272921323776245117e-01) (37, -1.64943307638168334961e-01) (38, -4.10227745771408081055e-01) (39, -1.65769770741462707520e-01) (40, -1.32226735353469848633e-01) (41, -1.71332761645317077637e-01) (42, -7.49206691980361938477e-02) (43, -3.86822223663330078125e-01) (44, -3.46537321805953979492e-01) (45, -1.23660370707511901855e-01) (46, -1.10299773514270782471e-01) (47, -1.12005144357681274414e-01) (48, -1.34064817428588867188e+00) (0, -7.16131031513214111328e-02) (1, -1.36097162961959838867e-01) (2, -3.76677401363849639893e-02) (3, -2.19641327857971191406e-01) (4, -3.05943876504898071289e-01) (5, -2.15404435992240905762e-01) (6, -9.20049473643302917480e-02) (7, 6.92295208573341369629e-02) (8, -2.38846894353628158569e-02) (9, -2.58655250072479248047e-01) (10, -9.03758034110069274902e-02) (11, -2.38472789525985717773e-01) (12, -3.87759417295455932617e-01) (13, -1.83409407734870910645e-01) (14, 4.92450967431068420410e-02) (15, 1.40103101730346679688e-01) (16, -1.69824376702308654785e-01) (17, -2.97397375106811523438e-01) (18, -1.35750561952590942383e-01) (19, -2.17667430639266967773e-01) (20, -1.74170047044754028320e-01) (21, -2.69744426012039184570e-01) (22, -1.84218510985374450684e-01) (23, -2.49196186661720275879e-01) (24, -1.73428282141685485840e-01) (25, -1.89774483442306518555e-01) (26, -4.22115325927734375000e-01) (27, -3.80372822284698486328e-01) (28, -3.26099187135696411133e-01) (29, -3.15359443426132202148e-01) (30, -2.84144461154937744141e-01) (31, -2.88161516189575195312e-01) (32, 7.58076235651969909668e-02) (33, -2.16858014464378356934e-01) (34, -3.11283767223358154297e-01) (35, -3.58173370361328125000e-01) (36, -2.97833710908889770508e-01) (37, -3.49687933921813964844e-01) (38, -1.02769866585731506348e-01) (39, -1.22014684602618217468e-02) (40, 1.37492418289184570312e-01) (41, -1.71206504106521606445e-01) (42, -1.15736648440361022949e-01) (43, -6.02603852748870849609e-01) (44, -4.12792026996612548828e-01) (45, -1.55782908201217651367e-01) (46, -9.23601016402244567871e-02) (47, -1.69615715742111206055e-01) (48, -1.32446217536926269531e+00) (0, -8.03707763552665710449e-02) (1, -2.23414134234189987183e-02) (2, -6.93880990147590637207e-02) (3, -5.02510890364646911621e-02) (4, -2.81600147485733032227e-01) (5, -8.77813622355461120605e-02) (6, -1.21785104274749755859e-01) (7, 3.54168075136840343475e-03) (8, -1.11152477562427520752e-01) (9, -2.44051262736320495605e-01) (10, -2.10081130266189575195e-01) (11, -1.41566425561904907227e-01) (12, -3.65744531154632568359e-01) (13, -2.30173408985137939453e-01) (14, -1.63681730628013610840e-01) (15, -9.76774562150239944458e-03) (16, -1.18436574935913085938e-01) (17, -2.33153980225324630737e-02) (18, -5.92783875763416290283e-02) (19, -2.64465302228927612305e-01) (20, -3.17294418811798095703e-01) (21, -3.77238988876342773438e-01) (22, -1.98210984468460083008e-01) (23, -4.31726515293121337891e-01) (24, 3.86446006596088409424e-02) (25, -1.30989328026771545410e-01) (26, -2.87014544010162353516e-01) (27, -3.30864727497100830078e-01) (28, -2.72545665502548217773e-01) (29, -2.45468825101852416992e-01) (30, -3.88140410184860229492e-01) (31, -4.59040790796279907227e-01) (32, 3.40715460479259490967e-02) (33, -1.78858742117881774902e-01) (34, -3.12583029270172119141e-01) (35, -4.90175515413284301758e-01) (36, -4.93012607097625732422e-01) (37, -3.41983646154403686523e-01) (38, -2.63647973537445068359e-01) (39, -1.96467921137809753418e-01) (40, -2.12201029062271118164e-02) (41, -2.76003390550613403320e-01) (42, -7.93699324131011962891e-02) (43, -4.99747991561889648438e-01) (44, -5.16097128391265869141e-01) (45, -3.14653456211090087891e-01) (46, -1.28855556249618530273e-01) (47, -2.48110909014940261841e-02) (48, -1.31988310813903808594e+00) (0, -2.82861921004951000214e-03) (1, -1.00696414709091186523e-01) (2, -1.69928491115570068359e-01) (3, -4.84712235629558563232e-02) (4, -3.99330884218215942383e-01) (5, -3.97166609764099121094e-01) (6, -2.00762167572975158691e-01) (7, -1.65730595588684082031e-01) (8, 9.61968600749969482422e-02) (9, -6.56417310237884521484e-01) (10, -3.40491771697998046875e-01) (11, -2.78905063867568969727e-01) (12, -1.33418232202529907227e-01) (13, -1.61074474453926086426e-01) (14, 2.66585350036621093750e-01) (15, -1.39763243496417999268e-02) (16, -5.37452757358551025391e-01) (17, -8.24479460716247558594e-01) (18, -4.18071568012237548828e-01) (19, -4.81295973062515258789e-01) (20, -4.55675274133682250977e-01) (21, -3.65057736635208129883e-01) (22, -2.49462172389030456543e-01) (23, -3.45916807651519775391e-01) (24, -4.89466041326522827148e-01) (25, -6.99896514415740966797e-01) (26, -7.31442213058471679688e-01) (27, -7.44975328445434570312e-01) (28, -3.54975342750549316406e-01) (29, -5.72968900203704833984e-01) (30, -5.12129604816436767578e-01) (31, -3.25933963060379028320e-01) (32, -2.11338520050048828125e-01) (33, -8.87300014495849609375e-01) (34, -7.15866506099700927734e-01) (35, -1.07524907588958740234e+00) (36, -5.44981300830841064453e-01) (37, -3.70820045471191406250e-01) (38, -4.05828446149826049805e-01) (39, -1.41171932220458984375e-01) (40, 7.49312564730644226074e-02) (41, -5.38777828216552734375e-01) (42, -5.13985985890030860901e-03) (43, -1.27758502960205078125e+00) (44, -7.26740419864654541016e-01) (45, -4.69760715961456298828e-01) (46, -5.74061609804630279541e-02) (47, 4.46466915309429168701e-03) (48, -5.66686511039733886719e-01) (0, 4.98081631958484649658e-02) (1, -3.03732305765151977539e-02) (2, -4.99484278261661529541e-02) (3, 5.21643608808517456055e-02) (4, -2.46903866529464721680e-01) (5, -1.11662045121192932129e-01) (6, 1.84038514271378517151e-03) (7, -1.54156953096389770508e-01) (8, -4.45150583982467651367e-02) (9, -3.28950315713882446289e-01) (10, -1.84778764843940734863e-01) (11, -2.81711220741271972656e-01) (12, -1.68872073292732238770e-01) (13, -9.22699421644210815430e-02) (14, 2.89215683937072753906e-01) (15, -1.69395923614501953125e-01) (16, -2.33756199479103088379e-01) (17, -4.76109892129898071289e-01) (18, -1.81584671139717102051e-01) (19, -3.25835734605789184570e-01) (20, -2.96318143606185913086e-01) (21, -3.16936701536178588867e-01) (22, -1.39559879899024963379e-01) (23, 1.56412422657012939453e-02) (24, -3.12863826751708984375e-01) (25, -3.43615144491195678711e-01) (26, -3.10976177453994750977e-01) (27, -4.11458343267440795898e-01) (28, -3.53074699640274047852e-01) (29, -3.56074273586273193359e-01) (30, -2.09968313574790954590e-01) (31, -4.90496959537267684937e-03) (32, -2.07331135869026184082e-01) (33, -5.02942085266113281250e-01) (34, -4.28559303283691406250e-01) (35, -5.08018732070922851562e-01) (36, -4.15943890810012817383e-01) (37, -2.66567438840866088867e-01) (38, -3.33526074886322021484e-01) (39, -4.58034733310341835022e-03) (40, -6.83473888784646987915e-03) (41, -2.81110972166061401367e-01) (42, -1.43192008137702941895e-01) (43, -5.01195251941680908203e-01) (44, -3.66529315710067749023e-01) (45, -2.99046635627746582031e-01) (46, -1.30708754062652587891e-01) (47, 1.13585090730339288712e-03) (48, -1.35235273838043212891e+00) (0, -1.64095938205718994141e-01) (1, 4.78288494050502777100e-02) (2, 5.66426366567611694336e-02) (3, -2.42610186338424682617e-01) (4, 1.36107265949249267578e-01) (5, -3.77248488366603851318e-02) (6, -2.96356141567230224609e-01) (7, -7.37328827381134033203e-02) (8, -1.07002235949039459229e-01) (9, 1.81007802486419677734e-01) (10, 1.44244223833084106445e-01) (11, 1.31791919469833374023e-01) (12, -1.98985412716865539551e-01) (13, -4.04317080974578857422e-01) (14, -1.69501319527626037598e-01) (15, -2.56104141473770141602e-01) (16, 9.01981443166732788086e-02) (17, 3.53360861539840698242e-01) (18, -5.73425628244876861572e-02) (19, 3.51276881992816925049e-02) (20, 5.17628863453865051270e-02) (21, 1.94172620773315429688e-01) (22, 3.35858643054962158203e-01) (23, 3.94156515598297119141e-01) (24, 1.08253821730613708496e-01) (25, 8.44868794083595275879e-02) (26, 1.55995234847068786621e-01) (27, -2.34282184392213821411e-02) (28, -5.89150749146938323975e-02) (29, 2.23378278315067291260e-02) (30, 3.27751755714416503906e-01) (31, 5.62208592891693115234e-01) (32, -2.17709481716156005859e-01) (33, 1.88721895217895507812e-01) (34, 3.37218374013900756836e-01) (35, 1.57991915941238403320e-01) (36, 6.02454394102096557617e-02) (37, 3.39293442666530609131e-02) (38, 2.19168022274971008301e-01) (39, -1.35782107710838317871e-01) (40, -1.33656561374664306641e-01) (41, 1.55263766646385192871e-01) (42, -2.47283264994621276855e-01) (43, 2.68567591905593872070e-01) (44, 1.67686030268669128418e-01) (45, -6.22595772147178649902e-02) (46, -4.80275675654411315918e-02) (47, -7.33096823096275329590e-02) (48, -1.59031414985656738281e+00) (0, -8.96750465035438537598e-02) (1, -1.93452537059783935547e-02) (2, -5.50611130893230438232e-02) (3, -1.38755172491073608398e-01) (4, -4.67119663953781127930e-01) (5, -2.28201419115066528320e-01) (6, -1.59372314810752868652e-01) (7, -1.05122782289981842041e-01) (8, 2.14296624064445495605e-01) (9, -3.32231074571609497070e-01) (10, -2.20444917678833007812e-01) (11, -1.63361757993698120117e-01) (12, -2.98486351966857910156e-01) (13, -3.22526087984442710876e-03) (14, -1.76414176821708679199e-01) (15, 1.82213187217712402344e-01) (16, -1.96400001645088195801e-01) (17, -1.67365789413452148438e-01) (18, -1.83175683021545410156e-01) (19, -3.62092316150665283203e-01) (20, -4.90487068891525268555e-01) (21, -5.03163993358612060547e-01) (22, -4.59678769111633300781e-01) (23, -6.84888243675231933594e-01) (24, -8.19977074861526489258e-02) (25, -3.41101646423339843750e-01) (26, -4.77162778377532958984e-01) (27, -5.16971588134765625000e-01) (28, -4.72898840904235839844e-01) (29, -4.16890144348144531250e-01) (30, -6.07251822948455810547e-01) (31, -6.84888064861297607422e-01) (32, 5.69983310997486114502e-02) (33, -3.63575190305709838867e-01) (34, -5.19708335399627685547e-01) (35, -8.06976616382598876953e-01) (36, -6.26912236213684082031e-01) (37, -5.24555981159210205078e-01) (38, -3.30725073814392089844e-01) (39, 1.07984401285648345947e-01) (40, -2.71751713007688522339e-02) (41, -3.39603751897811889648e-01) (42, -2.13864043354988098145e-01) (43, -1.05559349060058593750e+00) (44, -6.93017423152923583984e-01) (45, -4.52239543199539184570e-01) (46, 1.13723188638687133789e-01) (47, 7.97922089695930480957e-02) (48, -7.26324260234832763672e-01) (0, -6.27928674221038818359e-02) (1, -9.49670523405075073242e-02) (2, -1.51605412364006042480e-01) (3, -4.48991507291793823242e-02) (4, -1.97435781359672546387e-01) (5, -5.08644953370094299316e-02) (6, -9.56236869096755981445e-02) (7, 4.35921326279640197754e-02) (8, -1.74506828188896179199e-01) (9, -2.15914636850357055664e-01) (10, 3.59375402331352233887e-02) (11, -6.57669901847839355469e-02) (12, -2.01757371425628662109e-01) (13, -7.07750394940376281738e-02) (14, -1.69441804289817810059e-01) (15, -7.89065137505531311035e-02) (16, -2.30248093605041503906e-01) (17, -7.41053372621536254883e-02) (18, 6.23174086213111877441e-02) (19, -5.01883774995803833008e-02) (20, -8.66868719458580017090e-02) (21, -1.36395111680030822754e-01) (22, -3.81504707038402557373e-02) (23, -2.65101045370101928711e-01) (24, -1.60579860210418701172e-01) (25, -2.86280326545238494873e-02) (26, -1.61119610071182250977e-01) (27, -2.79089152812957763672e-01) (28, -1.93404003977775573730e-01) (29, -4.82848659157752990723e-02) (30, -1.48465692996978759766e-01) (31, -1.38092920184135437012e-01) (32, 1.27628641203045845032e-02) (33, -6.78014084696769714355e-02) (34, -1.40361174941062927246e-01) (35, -2.84338474273681640625e-01) (36, -1.01913981139659881592e-01) (37, -1.93163484334945678711e-01) (38, -1.41725480556488037109e-01) (39, -7.24561810493469238281e-02) (40, 5.60645312070846557617e-02) (41, -1.10861264169216156006e-01) (42, -1.28705119714140892029e-02) (43, -2.93209075927734375000e-01) (44, -2.44214788079261779785e-01) (45, -1.17945946753025054932e-01) (46, -1.97893351316452026367e-01) (47, -9.19923335313796997070e-02) (48, -1.51819455623626708984e+00) (0, -1.45207345485687255859e-01) (1, -1.61721203476190567017e-02) (2, -1.02177873253822326660e-01) (3, -1.99473083019256591797e-01) (4, 5.61181716620922088623e-02) (5, -9.07235816121101379395e-02) (6, -2.67262279987335205078e-01) (7, -2.13279768824577331543e-01) (8, -1.20222255587577819824e-01) (9, 2.01903030276298522949e-01) (10, 1.25053182244300842285e-01) (11, -1.16064120084047317505e-03) (12, -1.40520006418228149414e-01) (13, -3.72386217117309570312e-01) (14, -3.63708108663558959961e-01) (15, 3.37069779634475708008e-02) (16, 6.24792203307151794434e-02) (17, 1.81021600961685180664e-01) (18, 9.31299775838851928711e-02) (19, 1.06759428977966308594e-01) (20, 2.52679139375686645508e-01) (21, 1.55192971229553222656e-01) (22, 4.78714585304260253906e-01) (23, 1.72735422849655151367e-01) (24, 1.60758793354034423828e-02) (25, -1.09226770699024200439e-01) (26, 1.34326443076133728027e-01) (27, 2.84663643687963485718e-02) (28, -1.08800150454044342041e-01) (29, -7.05269649624824523926e-02) (30, 1.20189912617206573486e-01) (31, 2.38602757453918457031e-01) (32, -1.66202232241630554199e-01) (33, 2.27237462997436523438e-01) (34, 1.99817538261413574219e-01) (35, -4.21283841133117675781e-02) (36, -3.20296571590006351471e-03) (37, -7.90757536888122558594e-02) (38, 1.00508339703083038330e-01) (39, -1.55284255743026733398e-01) (40, -9.85163301229476928711e-02) (41, 2.14338496327400207520e-01) (42, -7.69759938120841979980e-02) (43, 4.12584431469440460205e-02) (44, 1.94415803998708724976e-02) (45, -1.18746511638164520264e-01) (46, -1.47421106696128845215e-01) (47, -2.94187784194946289062e-01) (48, -1.63657331466674804688e+00) (0, -3.14682722091674804688e-01) (1, -6.67437687516212463379e-02) (2, 4.93493005633354187012e-02) (3, -3.30904796719551086426e-02) (4, -4.40424263477325439453e-01) (5, -3.23569059371948242188e-01) (6, -4.40022684633731842041e-02) (7, 3.17537367343902587891e-01) (8, -1.16823837161064147949e-01) (9, -2.75947034358978271484e-01) (10, 5.15199415385723114014e-02) (11, -1.51221171021461486816e-01) (12, -6.45660281181335449219e-01) (13, -6.87974318861961364746e-02) (14, -4.15851324796676635742e-02) (15, 3.97933304309844970703e-01) (16, -2.94657289981842041016e-01) (17, -3.22280265390872955322e-02) (18, -7.25499764084815979004e-02) (19, -4.03431385755538940430e-01) (20, -3.85214626789093017578e-01) (21, -1.97156861424446105957e-01) (22, -2.84472733736038208008e-01) (23, -7.25577712059020996094e-01) (24, -7.76395499706268310547e-02) (25, -1.33701086044311523438e-01) (26, -5.43171644210815429688e-01) (27, -3.97242993116378784180e-01) (28, -4.11442786455154418945e-01) (29, -3.81450802087783813477e-01) (30, -7.11247086524963378906e-01) (31, -6.28621816635131835938e-01) (32, 2.19025790691375732422e-01) (33, -3.99558782577514648438e-01) (34, -6.54583752155303955078e-01) (35, -5.93199968338012695312e-01) (36, -4.36479032039642333984e-01) (37, -5.87569475173950195312e-01) (38, -3.64353001117706298828e-01) (39, 4.21719476580619812012e-02) (40, 2.99667984247207641602e-01) (41, -8.83472561836242675781e-02) (42, 3.44551168382167816162e-03) (43, -1.01242125034332275391e+00) (44, -7.03234553337097167969e-01) (45, -5.32484292984008789062e-01) (46, -1.03084355592727661133e-01) (47, -9.47346240282058715820e-02) (48, -9.72065210342407226562e-01) (0, -1.25484034419059753418e-01) (1, -2.07480862736701965332e-01) (2, -2.72803246974945068359e-01) (3, -1.96910798549652099609e-01) (4, -3.70420277118682861328e-01) (5, -1.02212704718112945557e-01) (6, -1.88636884093284606934e-01) (7, -1.50656342506408691406e-01) (8, 1.71917751431465148926e-02) (9, -1.11339531838893890381e-01) (10, -1.59227982163429260254e-01) (11, -2.38413855433464050293e-01) (12, -3.14172118902206420898e-01) (13, -9.78098362684249877930e-02) (14, -1.08299352228641510010e-01) (15, -1.48043632507324218750e-02) (16, -1.47856567054986953735e-02) (17, -1.76097035408020019531e-01) (18, -2.26508468389511108398e-01) (19, -2.23977237939834594727e-01) (20, -3.65681380033493041992e-01) (21, -2.29209005832672119141e-01) (22, -1.97445541620254516602e-01) (23, -2.11436182260513305664e-01) (24, 2.55230106413364410400e-02) (25, -1.96704894304275512695e-01) (26, -1.26225084066390991211e-01) (27, -3.35045188665390014648e-01) (28, -3.06151956319808959961e-01) (29, -2.32348501682281494141e-01) (30, -3.46237957477569580078e-01) (31, -4.59510326385498046875e-01) (32, 1.29590334836393594742e-03) (33, -1.95504575967788696289e-01) (34, -1.64779901504516601562e-01) (35, -2.74519413709640502930e-01) (36, -4.28674489259719848633e-01) (37, -2.29478746652603149414e-01) (38, -2.46142208576202392578e-01) (39, -1.90166067332029342651e-02) (40, -4.30410280823707580566e-02) (41, -2.06235915422439575195e-01) (42, -4.92370203137397766113e-02) (43, -2.87716418504714965820e-01) (44, -3.77521038055419921875e-01) (45, -9.79057848453521728516e-02) (46, -1.88231363892555236816e-01) (47, -1.42700389027595520020e-01) (48, -1.42306756973266601562e+00) (0, -1.38031467795372009277e-02) (1, -7.33309462666511535645e-02) (2, -1.59874722361564636230e-01) (3, -1.08797289431095123291e-01) (4, -1.84439420700073242188e-01) (5, -6.00360892713069915771e-02) (6, -4.76505793631076812744e-02) (7, -6.78957253694534301758e-02) (8, -1.25708207488059997559e-01) (9, -1.45719558000564575195e-01) (10, -1.16476297378540039062e-01) (11, -2.52373039722442626953e-01) (12, -1.87731996178627014160e-01) (13, -1.47392481565475463867e-01) (14, 8.88801589608192443848e-02) (15, 3.50219570100307464600e-02) (16, -6.23575896024703979492e-02) (17, -1.88909813761711120605e-01) (18, -2.79604405164718627930e-01) (19, -2.12467849254608154297e-01) (20, -2.72692799568176269531e-01) (21, -2.31896311044692993164e-01) (22, -2.51752972602844238281e-01) (23, -9.27118137478828430176e-02) (24, -1.71153694391250610352e-01) (25, -2.15823754668235778809e-01) (26, -1.72360092401504516602e-01) (27, -2.68493294715881347656e-01) (28, -2.50468790531158447266e-01) (29, -3.19068342447280883789e-01) (30, -1.64683237671852111816e-01) (31, -2.25451096892356872559e-01) (32, -5.27587495744228363037e-02) (33, -3.39236170053482055664e-01) (34, -2.79506415128707885742e-01) (35, -3.67060452699661254883e-01) (36, -3.86435449123382568359e-01) (37, -3.01727741956710815430e-01) (38, -2.32066527009010314941e-01) (39, -2.67795845866203308105e-02) (40, 7.44270160794258117676e-02) (41, -1.23828373849391937256e-01) (42, -9.44594442844390869141e-02) (43, -3.23152929544448852539e-01) (44, -2.73394942283630371094e-01) (45, -1.60044237971305847168e-01) (46, -1.71518623828887939453e-01) (47, -4.72151860594749450684e-02) (48, -1.41429126262664794922e+00) (0, 5.38655892014503479004e-02) (1, 5.93933500349521636963e-02) (2, 2.42390390485525131226e-03) (3, 1.92122206091880798340e-01) (4, -1.72223180532455444336e-01) (5, -1.79911434650421142578e-01) (6, -2.37571880221366882324e-01) (7, -5.10720610618591308594e-02) (8, -4.65021319687366485596e-02) (9, -3.78982156515121459961e-01) (10, -1.60030588507652282715e-01) (11, -3.29886496067047119141e-01) (12, 1.10532090067863464355e-01) (13, 1.56629651784896850586e-01) (14, 1.54045537114143371582e-01) (15, -1.32259935140609741211e-01) (16, -3.55145782232284545898e-01) (17, -6.35252475738525390625e-01) (18, -2.17516481876373291016e-01) (19, -2.85878121852874755859e-01) (20, -4.21163111925125122070e-01) (21, -1.60421356558799743652e-01) (22, -9.27564352750778198242e-02) (23, 8.67778733372688293457e-02) (24, -4.80426460504531860352e-01) (25, -5.81311762332916259766e-01) (26, -5.07977783679962158203e-01) (27, -4.71506774425506591797e-01) (28, -2.81440913677215576172e-01) (29, -4.58733767271041870117e-01) (30, -1.04330748319625854492e-01) (31, -2.65252709388732910156e-01) (32, -2.42942109704017639160e-01) (33, -6.94151580333709716797e-01) (34, -5.26298224925994873047e-01) (35, -7.59836971759796142578e-01) (36, -5.61450719833374023438e-01) (37, -2.94288635253906250000e-01) (38, -3.87387096881866455078e-01) (39, -1.13571286201477050781e-02) (40, -1.29585266113281250000e-01) (41, -3.64335119724273681641e-01) (42, -2.73614734411239624023e-01) (43, -7.61971652507781982422e-01) (44, -6.02718174457550048828e-01) (45, -3.33719819784164428711e-01) (46, -2.35439047217369079590e-01) (47, -7.12683331221342086792e-03) (48, -1.20579421520233154297e+00) (0, -8.10634419322013854980e-02) (1, -1.77382811903953552246e-01) (2, -1.21703125536441802979e-01) (3, -9.93280336260795593262e-02) (4, -1.75679579377174377441e-01) (5, -9.77047234773635864258e-02) (6, -8.17154571413993835449e-02) (7, -3.16418111324310302734e-02) (8, -1.57831966876983642578e-01) (9, -1.41139462590217590332e-01) (10, 2.83491276204586029053e-02) (11, -2.05007102340459823608e-02) (12, -1.62339180707931518555e-01) (13, -9.30244922637939453125e-02) (14, 3.91916781663894653320e-02) (15, -5.44117130339145660400e-02) (16, -5.32902441918849945068e-02) (17, -1.79915189743041992188e-01) (18, -7.41809681057929992676e-02) (19, -2.05086559057235717773e-01) (20, -1.28813728690147399902e-01) (21, -1.41897633671760559082e-01) (22, -5.73614574968814849854e-02) (23, -1.67593389749526977539e-01) (24, -1.95744335651397705078e-01) (25, -1.57689332962036132812e-01) (26, -2.03966021537780761719e-01) (27, -1.90615803003311157227e-01) (28, -2.02507883310317993164e-01) (29, -1.45144045352935791016e-01) (30, 2.88903433829545974731e-03) (31, -1.30150705575942993164e-01) (32, -9.09779667854309082031e-02) (33, -1.40308305621147155762e-01) (34, -1.22399024665355682373e-01) (35, -4.64171767234802246094e-02) (36, -9.26166996359825134277e-02) (37, -1.01265706121921539307e-01) (38, -2.39025522023439407349e-02) (39, -6.31441548466682434082e-02) (40, -3.84959876537322998047e-02) (41, -4.28075119853019714355e-02) (42, 1.61496754735708236694e-02) (43, -1.75815537571907043457e-01) (44, -2.67200171947479248047e-01) (45, -1.40913262963294982910e-01) (46, -1.21792517602443695068e-01) (47, -1.78257539868354797363e-01) (48, -1.54915380477905273438e+00) (0, -6.66339248418807983398e-02) (1, -1.23604975640773773193e-01) (2, -1.43168002367019653320e-01) (3, -9.18279960751533508301e-02) (4, -5.05924403667449951172e-01) (5, -2.54744768142700195312e-01) (6, -4.29669022560119628906e-02) (7, -7.78207406401634216309e-02) (8, 1.37907311320304870605e-01) (9, -2.17949151992797851562e-01) (10, -3.28132063150405883789e-01) (11, -2.71333247423171997070e-01) (12, -2.43716835975646972656e-01) (13, -1.84823572635650634766e-01) (14, -6.03764392435550689697e-02) (15, 9.02639925479888916016e-02) (16, -8.13129991292953491211e-02) (17, -3.64807248115539550781e-01) (18, -2.31835737824440002441e-01) (19, -3.79288107156753540039e-01) (20, -4.38367515802383422852e-01) (21, -4.98020797967910766602e-01) (22, -3.64385902881622314453e-01) (23, -5.16383111476898193359e-01) (24, -1.07666552066802978516e-01) (25, -2.84313023090362548828e-01) (26, -3.46618980169296264648e-01) (27, -4.45506781339645385742e-01) (28, -3.16941827535629272461e-01) (29, -4.21578615903854370117e-01) (30, -6.14043831825256347656e-01) (31, -6.54845476150512695312e-01) (32, -8.07807520031929016113e-02) (33, -4.23520654439926147461e-01) (34, -3.95132213830947875977e-01) (35, -7.29684412479400634766e-01) (36, -6.78422629833221435547e-01) (37, -4.52688992023468017578e-01) (38, -5.12918651103973388672e-01) (39, -1.61276131868362426758e-01) (40, -4.57110255956649780273e-02) (41, -2.14573100209236145020e-01) (42, -1.19980737566947937012e-01) (43, -7.66627430915832519531e-01) (44, -6.94382846355438232422e-01) (45, -4.31323140859603881836e-01) (46, -1.17686517536640167236e-01) (47, -2.01782863587141036987e-03) (48, -8.76624703407287597656e-01) (0, -1.72280773520469665527e-01) (1, 2.20174435526132583618e-03) (2, 1.52939394116401672363e-01) (3, -1.71216398477554321289e-01) (4, 5.40826991200447082520e-02) (5, 1.02346800267696380615e-01) (6, -2.82716035842895507812e-01) (7, -1.55484572052955627441e-01) (8, -1.46902039647102355957e-01) (9, 2.46807441115379333496e-01) (10, 1.57936885952949523926e-01) (11, 3.13380025327205657959e-02) (12, -2.45604380965232849121e-01) (13, -4.75846201181411743164e-01) (14, -3.92213851213455200195e-01) (15, -3.96348953247070312500e-01) (16, 3.22646945714950561523e-01) (17, 4.21974599361419677734e-01) (18, 2.45849341154098510742e-01) (19, 1.72019362449645996094e-01) (20, 3.18161360919475555420e-02) (21, 1.89957574009895324707e-01) (22, 2.34292194247245788574e-01) (23, 5.61270058155059814453e-01) (24, 4.30253416299819946289e-01) (25, 1.99603214859962463379e-01) (26, 3.78989309072494506836e-01) (27, -6.42518512904644012451e-03) (28, -2.25911680608987808228e-02) (29, 3.51095229387283325195e-01) (30, 4.02012258768081665039e-01) (31, 6.48192763328552246094e-01) (32, -7.26173073053359985352e-02) (33, 5.79156577587127685547e-01) (34, 5.15828132629394531250e-01) (35, 2.89624482393264770508e-01) (36, -1.92237403243780136108e-02) (37, 3.99941146373748779297e-01) (38, 3.94057154655456542969e-01) (39, 7.46187120676040649414e-02) (40, -1.35088324546813964844e-01) (41, 1.67481780052185058594e-01) (42, -9.95150953531265258789e-02) (43, 5.81330180168151855469e-01) (44, 2.88137406110763549805e-01) (45, 1.88135802745819091797e-01) (46, -6.25289753079414367676e-02) (47, -8.26919376850128173828e-02) (48, -1.50748801231384277344e+00) (0, -9.81904268264770507812e-02) (1, -1.03280983865261077881e-01) (2, -2.18938320875167846680e-01) (3, -1.82199373841285705566e-01) (4, -3.16261470317840576172e-01) (5, -1.33494555950164794922e-01) (6, -1.84319853782653808594e-01) (7, -3.07004358619451522827e-02) (8, 1.56245213001966476440e-02) (9, -1.74325853586196899414e-01) (10, -1.09873026609420776367e-01) (11, -1.66258737444877624512e-01) (12, -4.10456895828247070312e-01) (13, -2.14875683188438415527e-01) (14, -2.84794509410858154297e-01) (15, -1.50734866037964820862e-02) (16, -1.67829897254705429077e-02) (17, -3.54052893817424774170e-02) (18, -7.40712285041809082031e-02) (19, -2.18983814120292663574e-01) (20, -3.36572229862213134766e-01) (21, -1.97737231850624084473e-01) (22, -1.84327080845832824707e-01) (23, -3.87078881263732910156e-01) (24, 1.36609449982643127441e-01) (25, -1.00180350244045257568e-01) (26, -2.11813896894454956055e-01) (27, -3.36085498332977294922e-01) (28, -3.77323210239410400391e-01) (29, -3.41404557228088378906e-01) (30, -4.29908573627471923828e-01) (31, -5.26307404041290283203e-01) (32, -3.91247868537902832031e-02) (33, -2.39598855376243591309e-01) (34, -2.60743558406829833984e-01) (35, -4.18374031782150268555e-01) (36, -5.79897880554199218750e-01) (37, -3.78879070281982421875e-01) (38, -2.81351864337921142578e-01) (39, -1.75999030470848083496e-01) (40, -1.14890769124031066895e-01) (41, -2.09019258618354797363e-01) (42, -1.75061330199241638184e-01) (43, -4.39687103033065795898e-01) (44, -4.07509088516235351562e-01) (45, -2.85744130611419677734e-01) (46, -1.42982110381126403809e-01) (47, -1.24674558639526367188e-01) (48, -1.32637369632720947266e+00) (0, -2.16688156127929687500e-01) (1, -7.99528136849403381348e-02) (2, -1.60053715109825134277e-01) (3, -7.35177248716354370117e-02) (4, 1.95428635925054550171e-02) (5, 3.13702262938022613525e-02) (6, -1.68559998273849487305e-01) (7, 2.99263615161180496216e-02) (8, -4.89356398582458496094e-01) (9, -4.61418069899082183838e-02) (10, -2.88949720561504364014e-02) (11, 1.74368694424629211426e-02) (12, 3.69855500757694244385e-02) (13, -1.31917223334312438965e-01) (14, -2.75408267974853515625e-01) (15, -4.02767844498157501221e-02) (16, -2.21043348312377929688e-01) (17, 1.33000290952622890472e-03) (18, 1.58247709274291992188e-01) (19, 2.91246622800827026367e-01) (20, 1.03044264018535614014e-01) (21, 3.48865240812301635742e-01) (22, 2.86200404167175292969e-01) (23, 3.07227782905101776123e-02) (24, -6.99862912297248840332e-02) (25, -1.41745761036872863770e-01) (26, 1.66918382048606872559e-01) (27, -9.47553142905235290527e-02) (28, -6.79533109068870544434e-02) (29, 3.44822764396667480469e-01) (30, 2.57890671491622924805e-01) (31, 8.86940360069274902344e-02) (32, -5.16973994672298431396e-03) (33, 8.84853601455688476562e-02) (34, 3.35198402404785156250e-01) (35, 3.23383957147598266602e-01) (36, 1.60866409540176391602e-01) (37, 2.74478495121002197266e-01) (38, 1.46609708666801452637e-01) (39, -3.76659572124481201172e-01) (40, -3.02319638431072235107e-02) (41, 5.72952255606651306152e-02) (42, 1.76623687148094177246e-01) (43, 2.43096172809600830078e-01) (44, 3.78802255727350711823e-03) (45, -7.80066773295402526855e-02) (46, -4.16207998991012573242e-01) (47, -3.34745675325393676758e-01) (48, -1.74160921573638916016e+00) (0, -2.75281406939029693604e-02) (1, -4.76503111422061920166e-02) (2, -2.24077180027961730957e-01) (3, -6.35121539235115051270e-02) (4, -2.76833206415176391602e-01) (5, -1.86154291033744812012e-01) (6, -1.77127122879028320312e-01) (7, -6.24387264251708984375e-02) (8, -5.52128953859210014343e-03) (9, -2.32861414551734924316e-01) (10, -1.49406418204307556152e-01) (11, -2.27328300476074218750e-01) (12, -2.70085424184799194336e-01) (13, -1.57254666090011596680e-01) (14, 1.36644635349512100220e-02) (15, 1.96417663246393203735e-02) (16, -1.14794731140136718750e-01) (17, -1.03361420333385467529e-01) (18, -1.34719938039779663086e-01) (19, -1.52208268642425537109e-01) (20, -3.04262369871139526367e-01) (21, -1.45556285977363586426e-01) (22, -2.41540402173995971680e-01) (23, -2.03411996364593505859e-01) (24, -1.09789662063121795654e-01) (25, -7.68384188413619995117e-02) (26, -2.51177966594696044922e-01) (27, -2.35575765371322631836e-01) (28, -3.40959340333938598633e-01) (29, -2.02819496393203735352e-01) (30, -2.71361023187637329102e-01) (31, -3.02541613578796386719e-01) (32, 4.42868359386920928955e-02) (33, -2.49185353517532348633e-01) (34, -2.24534630775451660156e-01) (35, -2.99618393182754516602e-01) (36, -2.79520899057388305664e-01) (37, -2.26113945245742797852e-01) (38, -3.02050232887268066406e-01) (39, -1.84376537799835205078e-02) (40, -8.57630074024200439453e-02) (41, -3.88317890465259552002e-02) (42, -1.24999761581420898438e-01) (43, -3.81389051675796508789e-01) (44, -2.67295151948928833008e-01) (45, -1.32016927003860473633e-01) (46, -1.91622585058212280273e-01) (47, -7.79182910919189453125e-02) (48, -1.43445289134979248047e+00) (0, -3.18574085831642150879e-02) (1, -4.70156371593475341797e-02) (2, -2.30348065495491027832e-01) (3, -1.15806810557842254639e-01) (4, -3.41165125370025634766e-01) (5, -1.31626442074775695801e-01) (6, -5.78206479549407958984e-02) (7, -6.53666183352470397949e-02) (8, 8.47966969013214111328e-02) (9, -2.86209732294082641602e-01) (10, -1.26617595553398132324e-01) (11, -1.83989375829696655273e-01) (12, -3.57328236103057861328e-01) (13, -1.52817845344543457031e-01) (14, -5.78373372554779052734e-02) (15, 1.61671057343482971191e-01) (16, -2.90418148040771484375e-01) (17, -3.18025797605514526367e-01) (18, -2.71911472082138061523e-01) (19, -3.30522924661636352539e-01) (20, -3.64294260740280151367e-01) (21, -4.19656902551651000977e-01) (22, -2.05796748399734497070e-01) (23, -4.16009485721588134766e-01) (24, -2.84915208816528320312e-01) (25, -3.02605986595153808594e-01) (26, -4.34368669986724853516e-01) (27, -4.77095931768417358398e-01) (28, -4.20925259590148925781e-01) (29, -4.39681142568588256836e-01) (30, -4.40826714038848876953e-01) (31, -4.03568446636199951172e-01) (32, -3.71672250330448150635e-02) (33, -4.38187897205352783203e-01) (34, -5.03449857234954833984e-01) (35, -7.04672157764434814453e-01) (36, -4.21879947185516357422e-01) (37, -4.64575171470642089844e-01) (38, -4.08335924148559570312e-01) (39, -1.31022498011589050293e-01) (40, 5.27095161378383636475e-02) (41, 